nep4 1 Si 
cutoff 5 5 30 30
n_max 4 4
basis_size 12 12
l_max 4 2 0
ANN 30 0
 -6.8224540e-06
  2.9211258e-06
  5.7552170e-06
 -1.2542907e-06
 -2.3619809e-06
  3.6671947e-06
  8.4150879e-06
  2.5932504e-06
  2.0728319e-05
  1.3790067e-05
 -1.4597472e-05
 -2.8524983e-06
 -2.1026915e-05
 -5.9038266e-06
  1.5984757e-05
  1.1421479e-05
  5.0962763e-06
 -2.6005711e-05
 -7.0634735e-05
  3.9985491e-07
  1.0096474e-05
 -2.6430141e-06
 -4.3740791e-05
 -1.6877264e-05
  9.6046479e-06
  5.4228366e-07
 -1.0255698e-06
  1.9712295e-05
  3.3162894e-06
 -7.3692854e-06
 -8.2852785e-06
 -2.2368271e-05
 -2.7424568e-07
  1.5698939e-05
 -4.8006075e-07
  2.8146496e-05
 -2.0351768e-05
 -2.1648850e-06
  4.7860326e-06
  3.1171567e-06
 -4.0478585e-06
 -1.2718371e-05
 -6.6805765e-06
  3.0258375e-06
 -5.4429584e-06
 -1.7357646e-06
  1.9950880e-05
  5.3982558e-07
  8.8986144e-07
  1.2912642e-06
  7.4980499e-06
  2.7591877e-06
 -1.8377992e-07
 -7.7009663e-06
  1.9186225e-05
  1.4908803e-05
 -3.1740343e-05
 -2.5170926e-05
  1.2679041e-06
 -2.8704505e-07
  2.8136625e-07
  7.0713959e-06
 -5.1567331e-06
 -3.9675510e-06
 -4.4301182e-06
 -3.4211639e-06
  8.8458337e-06
 -1.2875678e-05
 -1.7634784e-05
  1.7999625e-06
 -1.2162177e-05
 -1.9744481e-07
 -1.1237110e-05
 -1.9115960e-05
  1.3389305e-05
 -1.8701235e-06
 -2.6414438e-07
  1.1008960e-05
  8.1515253e-07
 -1.9768047e-06
 -4.9564114e-06
  1.8023627e-05
  1.6947906e-05
  4.0129389e-06
 -2.1390137e-05
  8.3124460e-06
  7.1893317e-07
 -3.2152602e-06
 -1.2281352e-05
  1.3719021e-07
  5.1364594e-04
  7.2642410e-01
  5.1114947e-01
  2.0591024e-01
  1.2676902e-01
  1.4539431e-01
  3.1905722e-02
  3.1421673e-01
  6.4555153e-02
 -1.9346441e-01
  1.8078836e-02
  1.5182629e-01
  7.2866559e-01
 -5.4496843e-01
  2.4342631e-01
 -9.1410553e-01
 -8.8325214e-01
  3.7681952e-01
  8.3237983e-06
 -4.0918988e-01
 -5.1930058e-01
  1.1695579e-01
 -3.9904061e-01
  2.5801528e-01
  9.3482792e-01
  7.9773106e-02
  1.8310833e-03
  1.2302862e-02
  9.0633407e-02
 -3.4669701e-02
  3.7315142e-06
 -1.2858035e-06
 -1.1038167e-05
  1.2344448e-06
 -6.7896444e-06
 -2.8171917e-05
 -2.2745012e-06
  3.5557561e-05
 -3.9542656e-06
 -2.6528876e-06
  8.6869350e-06
 -3.5187109e-06
  3.2437536e-06
  3.5007834e-06
 -1.3564039e-06
 -6.4586928e-08
 -9.2549690e-06
 -9.8634009e-06
 -9.2077289e-06
 -1.5968653e-06
 -5.2318624e-06
  5.3616104e-06
 -7.3799993e-07
 -9.4461839e-06
  6.6895045e-06
 -2.7146789e-06
 -1.0680408e-05
 -2.7643646e-06
  7.7818213e-06
  1.4648490e-06
 -1.2834562e-05
  1.0568915e-05
  1.4891587e-05
 -1.0132994e-06
 -1.4585414e-06
 -5.9502181e-05
  1.1825799e-06
  2.4763372e-06
  5.4115858e-06
  9.3009749e-06
 -2.1814128e-06
 -1.9135055e-05
 -9.3827275e-06
 -2.5900201e-06
  4.3218984e-06
 -2.4143366e-05
 -6.3384987e-06
  4.4442419e-07
 -5.9871459e-06
  5.3490853e-06
 -4.8002530e-06
 -1.7564790e-06
  8.1260005e-06
 -2.0986592e-05
  7.9247793e-06
  9.0833373e-06
 -2.7408335e-06
  2.2474584e-05
 -1.1978187e-06
 -2.2126767e-06
 -4.3949190e-06
  2.7798696e-06
  3.7552927e-05
 -3.7133059e-06
  1.2517633e-05
 -7.1444842e-06
  3.7760651e-07
 -3.4813165e-05
  2.7480160e-05
 -9.5781634e-06
 -1.6411528e-05
  3.5699782e-06
 -6.2055001e-06
 -6.9898088e-06
  1.0321962e-05
  3.4281566e-06
 -7.5430273e-07
 -7.0317019e-06
  2.0607753e-05
 -9.4308561e-08
 -8.9274399e-06
  2.9340486e-06
  6.3507446e-06
  4.1527969e-06
 -2.7062060e-06
 -1.3183094e-05
  1.1708791e-05
 -1.1503857e-06
  2.1422336e-05
 -1.4616169e-06
  2.9725495e-06
 -7.1805316e-06
  2.1530536e-06
 -8.4710837e-07
 -1.4857297e-06
 -1.9197960e-05
  1.5797637e-05
  9.6620652e-06
  5.4813722e-07
  5.2395785e-06
  9.3648678e-06
  8.7279506e-05
 -9.0134690e-06
  4.9597024e-06
 -6.1711674e-08
  9.4885690e-06
 -1.2181292e-06
 -4.1459566e-06
 -1.9278652e-06
 -1.7594632e-06
  2.3930490e-06
  7.9084029e-06
 -1.8314900e-05
 -7.4157010e-06
  1.8530055e-06
  1.9592284e-05
 -1.0721161e-05
  1.2058021e-07
  2.5922529e-05
 -1.5928115e-05
  2.7718588e-06
 -1.7472362e-06
  1.3237183e-05
  1.0038789e-05
  8.8340548e-06
  2.6843302e-06
  2.7220572e-06
  1.2183766e-06
  1.3010951e-07
 -6.5461236e-06
 -1.8441753e-05
 -5.1916822e-07
 -3.0988788e-06
 -1.7152059e-05
  1.5712614e-05
 -5.8830083e-06
 -4.9778000e-06
 -5.9225217e-06
 -2.2044198e-05
  5.2571545e-06
  7.0034530e-06
 -3.6158863e-06
 -2.1038300e-05
  7.4578584e-06
 -4.4196431e-06
 -3.7104292e-06
  2.9830185e-06
  8.1425287e-06
 -2.6933253e-07
 -4.6076693e-06
 -7.2661388e-01
 -6.7431408e-01
  1.8821564e-01
  1.0178812e+00
 -2.5340813e-01
 -1.5250674e-01
 -4.8812092e-03
  6.9960207e-02
 -1.4520474e-03
 -1.1411795e-01
 -2.8471339e-01
  4.4999370e-01
  2.0255761e-02
 -6.3861407e-02
  2.8664976e-01
  8.2086682e-02
 -7.2723628e-06
 -1.8717307e-01
 -4.0710546e-02
  4.8667118e-01
  1.0107750e-01
 -2.3891217e-01
  1.8940264e-01
 -8.1376329e-02
 -2.4741687e-01
 -1.8305428e-02
 -5.1253651e-06
 -5.2457977e-02
 -1.1892729e-05
 -3.8515061e-02
  6.3255738e-06
  4.6199693e-06
 -9.1963111e-06
 -2.4228798e-06
  4.4253554e-07
 -1.1076309e-05
  1.2242465e-05
  4.0588052e-06
  4.2480006e-06
 -6.2035326e-07
  2.2211000e-06
 -5.0265166e-06
 -4.7680396e-06
 -2.2541954e-06
  6.6465634e-07
  8.4222875e-06
  3.4637691e-04
  2.2616905e-06
 -4.8993525e-06
 -6.3424895e-06
 -3.6901124e-06
  1.2795463e-06
  1.1286002e-05
 -7.9527363e-06
 -8.9639952e-06
  7.2051539e-06
 -6.2983954e-06
  3.3001934e-06
 -3.8672850e-05
  1.5197462e-06
  3.0409747e-05
 -1.9337415e-06
 -1.7729783e-06
  3.0742062e-06
  2.7881741e-05
 -1.9959116e-05
  1.3176057e-05
  2.4038958e-05
 -6.6618127e-06
  3.4984132e-05
 -9.9261088e-06
 -1.0193523e-05
 -5.6302629e-06
 -1.8593064e-05
 -1.7978256e-05
  3.2613011e-06
 -1.2289399e-05
 -7.4563000e-06
  4.2406314e-06
 -6.3433522e-06
  1.3377052e-05
  1.9253830e-06
 -6.3617804e-06
  1.4346758e-06
 -2.1565008e-06
 -2.3641533e-06
 -8.5219754e-06
 -5.3772046e-06
  4.9397687e-07
  5.7790039e-06
 -5.5284989e-01
 -1.3453978e-03
  7.8728569e-01
 -5.0936776e-01
 -2.8141303e-05
  1.1861287e-01
  5.7179444e-02
  2.6389590e-01
 -9.4290188e-04
  2.4253839e-01
 -3.8929054e-04
  3.4767650e-03
 -3.9646637e-02
  3.4237689e-01
  1.0528082e-01
  1.2671620e-01
  7.0531793e-02
  7.7876059e-05
  1.3200704e-05
  1.0642980e-01
  1.1352021e-01
 -5.9048202e-02
  2.8808299e-01
  8.8904071e-06
 -1.2069500e-01
  8.8148192e-07
 -1.4015643e-03
 -4.3809465e-05
 -5.7849854e-07
  1.6580401e-01
 -1.0146747e-05
 -1.0470156e-05
  1.0359007e-05
  1.7731005e-05
 -1.4496783e-06
  1.9086998e-05
  4.8903712e-06
  1.5416762e-06
  1.4140958e-05
 -8.6634727e-06
 -1.4582378e-06
  4.6680034e-06
  5.5830906e-06
  1.3005999e-05
 -5.2883488e-06
 -2.4972920e-05
  1.0932897e-06
  6.0548650e-06
  2.1121501e-05
 -1.0034836e-05
  1.5863718e-06
 -4.8083843e-06
  1.2970811e-05
 -5.2267442e-06
  4.8660077e-06
 -1.8102905e-05
  3.2938176e-06
 -1.4096411e-05
 -2.1376977e-06
 -6.3529333e-06
 -5.7908551e-06
  6.0421453e-06
 -4.1896715e-06
 -3.5692085e-06
 -2.1642950e-07
  6.9613502e-06
 -1.0168995e-05
 -2.6677312e-06
 -7.9076126e-06
  7.6752905e-05
  1.2188440e-05
 -2.2330091e-06
 -1.0714786e-06
 -4.5368876e-07
 -3.0890008e-06
  4.5165011e-06
  7.7525584e-08
 -2.0734100e-05
 -1.0054725e-06
  2.7767088e-05
  6.7973169e-06
 -4.7826420e-06
  3.9833112e-06
  1.3796522e-06
  4.9390942e-06
 -1.1339574e-05
 -1.5284249e-06
 -7.6174979e-06
  1.2906291e-05
 -3.7588873e-06
 -1.5891741e-06
  3.9525407e-06
 -2.2747086e-05
  8.5243737e-06
 -1.8043143e-05
  2.2057591e-05
 -5.2605747e-06
  2.3661355e-06
 -2.7951032e-06
 -1.3664175e-06
 -8.3922705e-06
  3.9785158e-05
  1.2316604e-05
  1.6979613e-05
 -9.5975438e-06
  3.1563130e-05
 -5.7578541e-06
  2.0172154e-06
  8.0133996e-06
  3.2872788e-06
 -2.0541875e-05
 -1.3275276e-06
 -1.9553554e-06
  5.7325237e-06
 -3.4117777e-05
 -4.2100969e-06
  2.0174061e-06
  1.3519741e-05
  2.8210809e-07
 -2.6233347e-06
 -2.2727163e-06
 -1.5907133e-05
  3.8436192e-06
  9.3219605e-06
  6.1085702e-06
  2.0058760e-06
 -2.0063469e-06
 -9.5405621e-06
  4.9522018e-06
  4.3392845e-07
  2.3523787e-06
 -8.5016818e-06
 -5.7966968e-06
  9.0437430e-07
 -5.9781978e-06
  4.9084349e-05
 -5.4664852e-06
 -2.1296601e-06
 -1.5549293e-05
  2.7380579e-06
 -1.3483917e-05
 -1.1635059e-05
  1.3579472e-05
 -9.0718422e-06
  1.5360289e-05
  3.4509903e-06
  3.2488383e-06
  1.3169800e-05
 -1.2528633e-05
 -1.3702571e-05
 -7.0842930e-06
 -5.5710025e-06
  1.6254220e-05
 -1.7662291e-05
 -3.1322481e-05
 -4.6395201e-07
 -1.8693734e-05
  1.1202525e-05
  2.0440391e-05
  1.6577103e-05
  1.0432189e-05
 -4.7952212e-06
  4.2735137e-06
 -9.9580720e-06
  3.3174524e-06
  1.9299348e-05
 -3.8060455e-06
  1.7449840e-05
  6.0006687e-06
  5.6030094e-06
  1.1477431e-05
  2.6156704e-06
 -1.1485761e-05
 -8.0736709e-06
  1.9614395e-06
  6.0277448e-06
  7.2881621e-06
  7.1262743e-06
  3.3953781e-06
 -1.0151635e-05
 -7.9250822e-06
  5.2538826e-07
 -1.9866004e-06
 -2.7718652e-06
  2.7097497e-06
 -8.6768214e-06
 -2.3216444e-05
 -5.2941364e-06
  1.4615696e-05
  1.2624178e-06
 -9.3843564e-06
 -4.3674090e-06
  2.2082862e-05
  5.7248271e-06
 -3.4826894e-06
  2.9375326e-06
  2.0456339e-06
  5.4572092e-06
 -8.5937008e-06
  7.7168961e-06
  5.1894735e-06
  1.1467651e-05
 -6.5947916e-08
 -5.5811329e-06
  1.2081801e-05
 -1.7746651e-04
 -8.8332490e-07
  1.0255916e-05
  4.2477045e-06
  8.2051577e-07
  8.5215845e-07
 -3.5682633e-06
 -1.0644868e-06
 -2.6538413e-07
 -5.8488281e-06
  4.9688642e-06
  2.5526597e-06
 -1.2195641e-05
  4.3304894e-06
 -8.1608960e-06
 -3.1370413e-07
  2.9654022e-06
  6.3331072e-07
  7.6827300e-06
  3.7790794e-06
  8.4572075e-06
 -3.1205957e-06
 -1.0259554e-06
 -1.5579424e-05
  1.1856866e-07
 -1.0451811e-06
  4.1743275e-05
 -1.1331011e-05
  9.5429789e-07
 -1.7803630e-06
  1.5480060e-05
 -1.4718696e-05
 -4.0476912e-06
  9.5804780e-06
  1.7448387e-05
 -7.7446221e-06
  2.8295135e-06
 -9.6593635e-07
 -1.1095395e-05
 -1.4593915e-05
 -5.8076098e-06
 -7.9683053e-07
 -5.1925435e-06
 -3.2863911e-06
 -1.0674549e-05
  4.2755605e-06
  4.7777189e-06
 -2.9580174e-06
  2.3964169e-06
 -1.3020539e-05
  3.1171598e-06
  6.5894151e-06
 -1.1890539e-06
 -7.2993598e-06
  3.1353509e-05
  8.8905272e-06
  2.0453917e-05
 -8.6575110e-06
 -7.8360699e-06
 -7.2365756e-06
 -2.3391847e-06
  3.3604713e-06
 -1.1931854e-06
 -3.9126303e-06
  6.1072672e-07
 -1.3664558e-05
  1.0175971e-05
 -7.5496077e-06
 -7.9700667e-06
  6.2663894e-06
 -1.5634689e-05
  5.7664897e-06
  1.3143949e-05
 -1.0929007e-05
 -2.2561560e-05
  6.3546631e-06
  1.7605169e-05
  3.6351961e-05
 -3.1543509e-06
  8.5730071e-06
  4.5476222e-06
  2.4403920e-05
 -1.3550208e-06
  3.8935432e-05
  1.0508330e-05
 -1.2463600e-05
 -2.2751385e-06
  4.9579367e-06
  1.1276212e-05
 -3.1261798e-06
  2.6251562e-05
  2.0358605e-06
 -2.0504344e-06
  4.8127336e-06
  2.4996948e-06
  6.6599215e-04
  1.1044350e-01
  4.6685132e-01
  3.1287022e-02
 -1.0061301e-01
  4.3978754e-01
  1.3194059e-02
 -1.3959417e-05
 -5.0837280e-05
  2.3782989e-06
 -1.9597118e-01
 -1.7904144e-06
 -7.9095960e-03
  8.9536771e-02
 -2.0405412e-01
  1.1109522e-01
  2.8539768e-01
 -1.9745657e-01
 -1.7370871e-06
  1.4210366e-01
  1.5452850e-01
 -7.4563955e-05
  1.8590201e-02
 -6.8306304e-05
 -2.4224244e-01
  6.4312635e-06
 -8.7886874e-06
  6.2275799e-06
 -2.8049239e-05
 -1.3097258e-05
  2.0837339e-03
 -4.1585138e-01
 -3.0203512e-01
 -2.4157053e-01
 -6.8792653e-01
  1.0022596e-02
 -9.7469553e-02
 -1.8396606e-05
 -7.2110834e-06
  1.2086328e-01
 -4.2879377e-02
 -1.6255097e-02
 -2.5258169e-01
  4.1071527e-02
  8.6762249e-02
  1.6232517e-01
  1.8870640e-01
 -1.5130384e-01
 -1.6460137e-05
  9.3819864e-02
  7.6922990e-02
 -5.9546212e-05
  1.3380842e-02
 -3.6524050e-04
 -2.3825361e-01
 -2.1451424e-05
  3.1661457e-05
  3.6912993e-06
 -4.2263587e-06
  4.2542288e-06
  1.0342447e-06
 -3.6994647e-06
 -1.3704751e-05
 -3.0186749e-05
 -9.3624440e-06
 -8.3954983e-06
 -1.7105836e-05
 -6.2962199e-06
 -7.0568494e-06
 -5.8934929e-06
  2.3858222e-05
 -5.0994236e-06
  2.0663776e-06
  1.3485252e-05
  4.1991771e-06
  3.4236873e-05
 -1.4585464e-06
 -3.5648347e-06
  1.7956452e-05
 -1.3310821e-05
 -3.3297961e-06
 -1.5221495e-05
 -5.3432209e-06
 -2.3051442e-07
  3.4992019e-05
 -7.4762102e-07
 -8.1024691e-06
  3.8603877e-05
  9.0894291e-06
  2.6300886e-06
 -1.0759692e-06
  1.5434600e-05
  3.8804428e-06
 -1.0420901e-05
  8.4579987e-08
  1.0948113e-05
 -4.8948618e-06
 -4.5285969e-06
 -6.3246107e-06
 -4.9572918e-07
  6.9452094e-06
 -1.0362672e-05
 -1.8837058e-05
 -1.0223685e-05
 -1.1694658e-06
  6.0255643e-06
  1.2440680e-05
  1.0625514e-05
  2.2396191e-05
  1.5845651e-05
  2.1529630e-05
 -9.3274721e-06
 -1.1137673e-05
 -2.1161809e-06
  4.5240222e-06
 -5.6453778e-06
  3.6085457e-05
  4.1247072e-06
  2.4873236e-06
  3.0098488e-06
  2.1926783e-01
  1.5820131e-06
 -4.1874453e-01
  5.3361133e-02
  2.4533048e-01
  1.6348984e-02
 -9.4894855e-04
 -4.8113617e-07
 -8.2278177e-03
  6.4864048e-07
 -3.8338397e-03
 -7.6089203e-02
 -1.2342753e-01
  1.5159349e-01
 -8.0250807e-02
  1.5004459e-01
  3.7866098e-01
 -2.8525341e-01
 -8.6664750e-06
  1.3329047e-01
  2.0242169e-01
 -6.6142768e-02
  9.1922082e-02
 -1.0935005e-01
 -5.0021368e-01
 -5.6529714e-04
 -1.8118022e-05
 -7.1036138e-06
 -7.2664870e-03
  1.6074840e-03
  2.4569177e-05
 -7.9812216e-06
 -4.6853529e-07
  1.2239366e-06
  9.4637826e-06
  2.2630425e-06
 -1.7637889e-05
 -3.3975764e-06
  8.0182635e-06
  4.1903797e-07
  7.3693532e-06
  1.5169533e-05
  5.0769099e-06
 -5.2873547e-06
  3.5996291e-06
 -4.7080630e-06
  2.8265333e-06
  1.0483765e-05
 -1.6932735e-07
 -1.1557766e-05
 -2.9431390e-05
 -1.1131901e-06
  2.3128256e-05
  1.4591469e-05
  3.0082057e-05
  1.0106176e-05
  3.2672739e-05
  5.6970953e-06
 -3.8770731e-06
 -4.5884841e-05
  4.6421617e-05
  1.7825754e-05
 -1.6730753e-05
  1.2684858e-05
  3.8679273e-06
 -4.8493703e-06
 -6.3306493e-06
  6.7262351e-07
  1.0106703e-05
  1.2619988e-05
 -5.2576534e-06
 -3.4745349e-06
 -3.9731976e-06
  1.4476760e-06
 -1.7681998e-05
  1.2913707e-05
 -7.7379273e-06
  4.3748599e-07
 -9.3433482e-06
 -1.8325578e-06
  6.3773177e-07
  2.4645094e-06
 -2.1668122e-06
 -1.6348497e-05
  2.3206889e-05
 -1.8028726e-05
  5.0547210e-06
  9.2126165e-06
  2.1118333e-07
  7.0918072e-06
 -1.2785977e-05
 -2.3186774e-06
  2.2573195e-06
  1.6974257e-06
  1.3484086e-05
 -1.0407368e-05
 -5.1160860e-06
  4.2564279e-06
  8.0063883e-06
 -3.4268139e-06
 -1.2287986e-05
 -1.2816843e-05
  2.4741950e-05
 -1.0301499e-06
  2.3451387e-06
  4.9749387e-06
 -1.2677120e-06
 -8.4459125e-06
 -1.1170366e-05
 -4.5938305e-06
 -1.2645178e-05
 -5.5087253e-06
  1.0663901e-05
  1.2638340e-05
  4.3039345e-06
  1.6016500e-05
 -2.3738377e-05
  5.2854148e-08
 -3.8177841e-06
 -2.9266541e-06
  5.0246304e-06
  8.5769379e-06
  6.2029849e-06
 -2.1043615e-01
  1.7094007e-05
 -1.0237651e-05
 -2.2340762e-06
 -1.3755708e-05
  1.6967026e-05
 -1.5162572e-01
 -2.4882233e-06
  1.4850489e-05
  1.0078415e-01
 -1.8767765e-05
 -2.3767668e-06
  3.5219421e-06
  7.2503663e-06
  6.7173655e-06
 -8.8522356e-06
 -2.8953715e-05
 -1.0187519e-05
  1.3156271e-06
  1.1804705e-05
  1.0297480e-05
 -1.0590871e-05
 -9.6178956e-06
 -2.6391843e-05
 -1.1182087e-07
 -9.7589364e-06
 -8.6257896e-06
  1.0595892e-05
 -6.1507526e-06
 -4.9080267e-05
  1.6176844e+00
  3.5176952e-06
  2.0912293e-07
  2.7640954e-05
  1.5737700e-06
  1.9943778e-05
 -1.1780276e+00
 -8.8238306e-07
 -3.0532107e-07
 -6.9865125e-01
 -2.5997667e-06
  3.3149066e-05
  5.8040519e-06
 -3.5661662e-07
  8.9916684e-06
 -1.5073443e-06
 -3.3449785e-06
 -2.6354372e-05
 -8.4266567e-06
 -5.3111142e-01
 -5.4028296e-01
  1.5650720e-06
 -8.7383733e-06
 -8.3536601e-01
 -3.6479698e-05
 -1.6957089e-05
 -5.5091004e-06
  5.1686497e+00
 -4.2212212e-01
 -6.7118381e-05
  1.0388891e-01
 -4.5876062e-05
 -2.6224992e-01
  4.7301954e-01
 -3.2030195e-01
 -6.9180983e-01
  3.9326917e-02
  5.1309764e-01
 -7.1300413e-03
  2.2376551e-01
  2.5922647e-01
 -2.8555983e-01
 -1.7275203e-06
 -4.1797766e-01
 -3.1706877e-04
 -4.3156311e-01
 -1.0052898e-01
 -5.8841401e-01
  1.2679140e-01
  6.1265624e-01
  1.3139723e-01
  2.1855813e-01
  7.6066858e-01
  2.2316962e-01
 -4.5199245e-01
  6.4148466e-05
 -2.6916105e-01
  6.0752124e-01
  5.1156396e-01
 -1.7524682e-04
 -2.5919011e-01
  1.2311283e-01
 -7.3718429e-03
 -4.0177248e-02
  5.7459682e-01
  5.5145632e-02
 -1.2138043e-01
 -6.3056999e-01
  1.0074703e-05
 -1.1370374e-01
 -1.1622442e-01
  4.3370944e-02
 -7.6659381e-01
 -2.8954762e-01
  1.7752054e-01
 -3.4441966e-01
 -1.4414501e-01
 -1.7376441e-01
 -5.0559908e-01
 -4.9694672e-02
 -2.4969271e-01
  4.7871922e-06
  1.4946114e-05
  7.5972907e-02
 -3.7534897e-05
  1.5684514e-01
 -1.1225297e-02
  4.1647467e-01
 -2.6280399e-05
  2.1980477e-02
  2.4307895e-01
  1.4658478e-01
  5.5878288e-01
  7.5679922e-01
  2.4685412e-05
  1.9315766e-01
  4.9850139e-01
  6.1657652e-02
 -8.1741703e-01
  1.1794517e+00
 -4.2211139e-01
 -8.5834885e-01
  2.6812336e-01
 -2.1139114e-01
  1.0257183e-01
  9.2949674e-02
 -2.4546050e-01
  4.3477561e-05
 -2.2254600e-01
  2.3472330e-01
 -5.2295142e-01
  5.2764910e-01
 -6.7709768e-01
  6.5660965e-01
 -1.2399470e-01
 -7.4835455e-01
  7.5361067e-01
 -2.9829440e-01
 -3.4322019e-03
  2.7829942e-01
  8.5245721e-02
 -7.8375333e-06
 -1.8504651e-01
  6.1694360e-01
 -7.3359740e-01
  6.9122922e-01
  8.8711703e-01
  1.1098641e+00
 -3.7116018e-01
  6.4264880e-03
  6.8877560e-01
  6.2293464e-01
 -1.7080942e-01
  6.4047508e-06
 -1.9189301e-01
 -2.9850459e-01
  2.8594199e-01
 -7.5883073e-01
  6.6596305e-04
 -8.9102060e-02
 -4.7355437e-01
  1.4274238e-01
 -5.3269710e-02
 -4.2857704e-01
 -1.5049258e-01
 -7.6519558e-04
  3.9844435e-01
 -1.3315351e+00
  7.4203676e-01
  1.7781925e-01
 -1.3239825e+00
  5.5742669e-01
  2.1413518e-01
 -3.3042443e-01
 -1.1651120e-01
  1.0689003e-01
 -1.0341263e-01
 -2.1364972e-06
  1.5960599e-01
  1.5960599e-01
  1.5960599e-01
  1.5960599e-01
  1.5960599e-01
  6.2518746e-01
  6.2518746e-01
  6.2518746e-01
  6.2518746e-01
  6.2518746e-01
  3.2167724e-01
  3.2167724e-01
  3.2167724e-01
  3.2167724e-01
  3.2167724e-01
  2.8384753e-02
  2.8384753e-02
  2.8384753e-02
  2.8384753e-02
  2.8384753e-02
  2.5516443e-02
  2.5516443e-02
  2.5516443e-02
  2.5516443e-02
  2.5516443e-02
  6.0879916e-01
  6.0879916e-01
  6.0879916e-01
  6.0879916e-01
  6.0879916e-01
