nep4 1 Si 
cutoff 5 5 30 30
n_max 4 4
basis_size 12 12
l_max 4 2 0
ANN 30 0
  9.6956497e-01
 -1.0812216e+00
  3.8541794e-01
  1.3382218e+00
 -2.9161771e-05
  3.9135851e-03
 -1.6306490e-02
 -1.4486167e-01
 -4.6981364e-01
  2.6806174e-03
  2.0479882e-02
 -8.1081599e-02
 -8.7942033e-05
 -2.2181381e-01
 -2.8693676e-03
  2.2559834e-01
  4.6981207e-01
  2.3772296e-05
 -4.4771001e-01
 -1.8398764e-03
 -6.6061281e-02
 -4.6188291e-04
 -7.1854292e-06
  2.1673876e-01
  6.7708790e-02
 -9.4693318e-02
 -3.1482589e-06
 -1.3018139e-06
  1.0722371e-02
  8.4537514e-02
  1.1319716e-05
 -1.8112830e-06
 -4.7306157e-06
  4.9796777e-06
  7.0805968e-06
  4.0971663e-06
 -1.2206749e-06
  6.9250123e-06
  1.3368339e-05
  6.2183922e-06
  1.7316464e-05
 -7.8530883e-07
  7.5794278e-06
  3.1715595e-06
 -6.1662677e-06
 -2.1501951e-06
  2.9107480e-06
 -4.4729131e-07
  1.0205073e-05
  9.5535152e-06
  3.2396979e-06
 -2.8079841e-05
  8.7400133e-07
  1.0313375e-05
  3.8356967e-07
  1.1903221e-05
  6.8282584e-06
  2.2334243e-06
  5.5372511e-06
 -1.1057885e-05
  1.2318311e-05
  2.0880859e-07
  1.0198276e-06
 -2.0285697e-06
 -4.8114821e-06
  1.1244867e-05
 -2.6102758e-05
  1.5127602e-06
 -4.9360833e-06
  8.3236928e-06
 -3.1024706e-06
 -2.7990773e-06
 -5.7798429e-06
 -2.1246649e-05
 -8.4204576e-06
 -1.9182720e-05
 -9.3907320e-06
  6.7803803e-06
  8.0452655e-06
 -1.2194781e-06
  4.0626378e-06
  2.7119790e-05
 -4.3028713e-06
  1.7954947e-06
 -9.7719303e-06
 -1.2935629e-07
 -9.4270359e-07
 -5.7242978e-06
  1.0778052e-05
 -2.8351596e-06
 -1.4422765e-06
  4.9460332e-06
  7.4410209e-06
  3.4866996e-06
  1.0659111e-05
  1.0110820e-06
  3.4409208e-05
 -8.8390874e-07
  2.0702804e-05
 -1.2070153e-06
  7.2242312e-07
  9.1440552e-06
  3.9632364e-06
 -6.1515921e-06
  1.3374683e-06
 -1.1440321e-05
  3.2641339e-05
  2.0395901e-06
  2.7647677e-06
 -8.8829056e-06
 -1.2800151e-05
 -4.7484878e-06
  3.5727080e-06
 -5.8879127e-06
 -3.2614203e-06
 -2.1747157e-06
 -3.7150460e-06
  9.8375222e-06
 -3.9768113e-07
  3.4285576e-06
  1.8317061e-06
 -3.5202656e-06
 -3.2656233e-06
  3.6426323e-07
 -1.4541993e-05
 -8.4479979e-07
  1.0910096e-06
  1.0189739e-05
  2.9530752e-06
  2.3571260e-06
 -2.0411806e-06
  1.2410300e-06
 -1.7020873e-05
 -3.0309934e-06
 -1.2102028e-05
 -2.7880678e-06
  3.5767703e-06
 -2.3269198e-05
 -3.0661238e-06
 -6.8774813e-07
 -1.9549288e-05
 -1.2319997e-05
  5.1879551e-06
  6.4336082e-06
 -6.8975901e-06
 -3.1086765e-05
  6.6984949e-06
 -1.4039846e-06
  3.0158938e-07
  3.3355188e-06
 -7.8688454e-06
  1.5572934e-05
 -1.4146187e-06
  1.9012930e-06
 -5.2873411e-06
  3.4635386e-06
 -1.4985089e-06
 -1.3946449e-06
  1.0100642e-06
  9.8794671e-06
 -2.6071682e-06
  1.4324170e-06
  6.7365472e-06
  4.2595202e-06
  1.2516166e-05
  1.4284851e-06
  2.8946440e-06
 -1.2116221e-05
 -1.6851345e-06
 -7.9626113e-07
 -8.7369081e-06
  9.4053748e-06
  3.4335003e-06
  2.3252742e-06
  7.7083296e-06
 -1.3797727e-07
 -1.9348279e-05
 -9.4761399e-06
  4.6447058e-06
  5.2311816e-06
  3.6434660e-06
 -1.1554084e-05
 -3.9895684e-07
 -3.1636614e-07
 -1.4336068e-05
 -5.1362575e-05
 -1.5984872e-06
 -2.1155604e-06
  2.0479370e-06
 -2.1624626e-05
 -1.1675468e-05
  5.2339810e-06
  3.0408164e-06
  2.1200610e-06
 -5.5869996e-06
 -1.8634693e-06
  7.5810976e-07
 -1.0314227e-05
  5.2508617e-06
 -2.6723837e-05
  5.7856023e-06
  3.0810406e-06
 -1.0446924e-05
  1.1183256e-05
  8.9799860e-06
  4.8895349e-06
  3.2559212e-06
 -1.3652018e-06
  2.5233658e-07
 -8.3198274e-06
 -1.5064218e-05
  1.0976180e-05
 -3.9486508e-06
  1.3112208e-06
  6.0461616e-07
  3.1917161e-06
 -8.2748198e-07
  2.4607541e-06
 -3.7726261e-06
 -9.3296921e-06
 -8.2865072e-06
  1.6366486e-06
 -2.5301706e-06
  6.6778216e-06
 -5.6535778e-06
  3.2253306e-06
  3.5515775e-05
 -3.8290741e-06
 -1.0351623e-06
  6.7052224e-06
  3.7160673e-06
 -4.3367737e-07
 -4.2289063e-05
 -1.1025155e-05
  1.2004878e-05
  8.5588272e-06
 -2.8158938e-05
  1.2061239e-05
 -2.7109141e-07
 -3.5845030e-06
 -8.4489120e-06
  7.0022757e-06
 -1.0086205e-05
  4.6428381e-06
 -7.8748357e-08
 -1.2840592e-06
 -7.7851691e-06
  9.5892683e-06
 -2.0320736e-06
 -2.1828630e-06
 -9.9424324e-07
 -4.8143261e-07
 -8.5256227e-07
 -2.5038769e-06
  3.0874719e-06
  8.4470230e-06
 -8.0451246e-06
 -1.3906778e-05
  1.7755995e-06
 -2.2492588e-07
  9.8794089e-07
  6.6480825e-06
 -3.6796016e-06
  2.5208083e-06
 -9.4214101e-07
 -6.8804193e-06
  3.1778650e-06
 -3.0085098e-06
  1.9388892e-07
  1.8142471e-06
 -4.9166277e-01
 -3.6655818e-03
  1.7893368e-01
  1.7478649e-02
 -1.0253556e+00
  1.4951836e-01
  2.8402561e-05
 -2.5193998e-01
 -9.5714718e-02
 -1.7986038e-01
  3.6163691e-01
 -1.9392464e-01
 -2.3349108e-04
 -7.3954597e-02
 -3.0570927e-01
  2.0581917e-01
  9.6474390e-04
  4.9132914e-06
  2.7375499e-02
  4.2812285e-01
 -3.5510418e-01
 -6.7625158e-02
 -3.9371851e-05
  3.0953391e-04
 -5.2928754e-06
  9.1010712e-02
 -7.9140738e-02
 -7.6411488e-06
  1.6831049e-05
 -2.3648281e-06
  2.2236509e-07
  1.0870902e-05
 -1.2366577e-06
  4.2039137e-06
  2.5266956e-05
  1.7829421e-05
 -6.5931627e-06
 -4.3337850e-06
 -6.9839070e-06
  7.2669241e-07
 -1.3308351e-05
  6.1071523e-06
 -4.6901573e-06
 -6.2945278e-06
 -8.4180419e-06
 -6.3835705e-06
 -5.5845749e-06
 -1.1980820e-05
  2.2546324e-06
  1.5356229e-05
 -5.3964169e-07
 -9.3260815e-06
  7.8547691e-06
  9.2386790e-07
  2.1268728e-05
 -1.4908037e-06
  7.0592741e-06
 -4.8854376e-06
 -9.6577496e-06
 -8.7428390e-07
 -1.1336941e-05
 -9.8346004e-07
  1.9655733e-06
 -3.0939930e-06
 -4.5014485e-06
 -3.0889325e-05
  2.2173981e-06
  7.6542744e-07
  6.6685293e-06
 -1.1711243e-06
  8.7958841e-05
  4.4007538e-06
  3.7192503e-06
 -7.5557664e-06
 -1.5990670e-05
 -6.1730943e-06
 -6.5926674e-06
 -4.9385762e-06
  2.3443677e-06
 -2.7942053e-06
 -9.2865594e-06
  6.3134285e-06
 -2.4302926e-06
  7.1492525e-07
  2.1620110e-07
 -3.3119536e-06
 -1.1531315e-05
  7.8843996e-06
 -7.3817796e-06
  2.5473544e-06
  4.2214219e-06
 -8.2096312e-07
  4.0760115e-06
  2.4534324e-06
 -1.9470442e-06
 -7.4295385e-06
 -1.7835973e-05
 -6.2548934e-06
  2.7343351e-06
 -2.8982624e-06
 -3.5425074e-07
 -3.5557289e-06
 -4.3514401e-06
  1.7389235e-05
  2.5243682e-05
  1.1781488e-05
  2.2981408e-06
 -2.5414229e-06
 -1.1535196e-05
  9.6069070e-06
  9.1661714e-06
 -1.0649547e-05
 -1.1702629e-06
 -3.5865258e-07
 -1.3679806e-05
 -2.7720243e-06
 -3.2921312e-06
 -1.7704127e-06
 -5.6166659e-06
 -6.2502022e-06
  1.9163969e-07
 -5.2212658e-06
  4.5355193e-08
 -4.8946581e-06
  2.6046685e-06
  4.4425415e-06
  5.8274995e-06
  4.2168085e-06
  2.1042911e-06
 -8.6266018e-06
  4.4567932e-06
  8.0750278e-06
 -7.9560996e-06
 -7.7855742e-07
  1.1673144e-05
 -6.7780803e-07
 -1.2774583e-05
 -7.5322018e-06
  1.9355371e-06
  1.2294678e-05
 -3.8613471e-05
  1.2238888e-05
  8.0369728e-06
 -2.4246449e-06
  4.0119239e-06
 -2.0022599e-06
  3.8639437e-06
 -1.4758531e-05
 -1.2678331e-05
 -2.8144507e-07
 -1.0444101e-06
  1.7938901e-06
  4.9736245e-06
 -9.6513095e-06
 -2.8924773e-05
 -5.7142051e-06
 -3.9066640e-07
  1.7115288e-05
 -7.0775841e-06
  1.2570722e-06
 -2.7603562e-06
 -9.0522724e-07
  5.4810330e-06
  8.6664659e-06
  1.3252602e-05
  2.8617699e-06
 -7.3746992e-06
  7.4198724e-06
 -3.9724537e-06
 -8.1810376e-06
  1.2118649e-05
 -1.0446354e-05
 -2.9552934e-06
 -1.6114138e-06
  1.5396606e-06
 -5.3496979e-07
 -9.0987696e-06
 -1.4703269e-05
 -3.8144537e-06
 -1.7187205e-05
 -3.7333350e-06
  2.6838652e-06
  1.0947979e-05
 -8.2432007e-07
 -1.2281519e-05
  2.9081441e-05
  1.2981039e-06
  3.5787043e-06
 -2.3456132e-06
  4.4390781e-06
 -1.5049414e-05
  8.4328133e-07
  5.0109634e-06
  9.5677715e-06
  1.8837960e-05
  1.9786858e-06
 -1.3266474e-05
  2.6445175e-06
 -1.2222574e-06
  9.0179883e-06
  1.1373946e-05
  4.8502357e-06
  3.5595099e-06
 -4.2256206e-06
 -1.0157894e-05
  6.3454004e-06
  2.7519260e-07
 -6.1268124e-06
 -1.4741127e-06
  9.5628520e-06
  1.4083738e-05
 -7.3455590e-06
 -6.7732071e-07
  1.3791664e-05
  1.7820975e-06
  7.8379271e-06
 -5.0210292e-07
 -1.0280846e-06
 -5.9085454e-07
 -5.0930125e-06
  2.9372161e-06
 -2.6840717e-06
  1.2711325e-07
  9.2408427e-06
  3.0495733e-06
 -3.5787639e-06
  2.1153094e-06
  2.1544181e-06
  6.8295799e-06
  1.6765352e-05
 -1.8774714e-05
 -8.0633959e-07
  8.7357766e-06
  3.0395797e-05
  7.6806791e-06
 -5.8404235e-06
  2.3729168e-05
 -9.8088208e-07
  4.1523717e-06
  9.0700159e-06
  3.8246089e-05
 -2.2762879e-06
  1.1860915e-05
 -5.4209809e-06
 -4.0360751e-06
  1.6107442e-05
 -3.2987114e-06
 -1.7636507e-06
  2.6156324e-06
  1.6029240e-06
 -7.2672265e-07
  9.1230859e-06
  1.0639330e-05
 -1.1556893e-05
  2.2072895e-06
 -1.5435355e-05
  1.6101892e-05
 -3.7299046e-06
  6.9412349e-06
 -1.7153377e-05
  4.4294566e-07
 -2.4583169e-05
  3.6412723e-06
 -8.1405378e-06
 -7.1067507e-06
 -5.3200256e-05
 -1.2095535e-05
 -6.1169696e-05
 -2.7053613e-06
 -9.6943349e-06
  1.6526072e-01
  5.5777646e-06
  2.5922982e-05
 -1.4439878e-01
  4.9052771e-02
  5.2527091e-03
  5.4118544e-02
 -1.8028489e-04
 -4.6094583e-06
  3.2337123e-01
  2.2945881e-06
  1.1082194e-06
  6.1577100e-07
 -2.7942065e-02
 -1.4885592e-03
  2.2368574e-04
 -5.9750926e-07
 -1.8746105e-06
 -2.2900029e-07
  9.9716699e-06
 -1.2494011e-03
  9.5795913e-06
 -8.8700256e-07
  4.6878904e-02
  1.2834849e-06
 -2.3961879e-06
  2.1119536e-06
  7.4113800e-06
  3.1485006e-06
 -4.0709192e-06
  2.3150928e-06
 -2.6959030e-06
  1.1001034e-05
  1.3837500e-06
  3.8997311e-07
 -4.2837814e-06
  8.8459228e-06
 -5.0838894e-06
  3.8670973e-06
 -1.8377803e-05
 -5.6926442e-06
 -7.2135658e-06
 -1.1738970e-07
 -1.7150940e-06
 -4.0623540e-06
  6.2082199e-07
  2.2760876e-06
  9.6103122e-06
  7.8236480e-06
  5.6126805e-06
 -5.4738221e-06
  1.8051696e-05
 -4.3129326e-06
 -3.5462563e-07
 -5.3403865e-06
 -1.9387205e-06
  9.8435085e-06
  2.3226039e-06
  5.1499014e-06
  7.5861235e-06
  3.9197553e-06
 -5.8673908e-07
  2.6248608e-06
  9.1398870e-06
 -1.0806302e-05
  4.7618589e-05
  6.4271235e-06
  8.2100132e-06
 -4.5014522e-06
  8.3329815e-06
 -8.9488176e-06
  1.1043055e-06
  1.1929847e-05
 -5.8508604e-06
  3.0231031e-06
  1.8090897e-06
  5.2900818e-06
 -1.4192914e-06
  2.0903776e-06
 -4.7492053e-06
 -1.3820722e-05
  6.8670006e-06
 -1.0508687e-05
 -5.3313788e-06
  1.7893244e-05
 -7.6281310e-07
 -5.4146426e-06
  1.1863626e-05
 -1.4399065e-05
  1.1301383e-05
 -6.3915275e-02
 -8.9278795e-02
 -1.3872437e-01
 -5.7822341e-01
  7.7603990e-01
 -2.0072471e-01
 -4.5287091e-01
  3.0996594e-01
  1.1953831e-01
 -2.9665774e-01
 -1.7287466e-01
  2.9786482e-01
  3.3821892e-05
  4.1873482e-01
  3.3239311e-01
 -2.7421385e-01
 -1.8843168e-05
  5.7841025e-06
 -2.0153841e-05
 -4.8660541e-01
  3.4793192e-01
  8.6620823e-02
  6.0663217e-05
 -2.9728812e-01
  1.2614308e-05
 -2.2730549e-06
  4.0615196e-05
 -3.1755956e-06
 -1.4983883e-05
 -3.6103993e-06
  2.1035117e-01
 -2.3650479e-01
 -2.0610291e-01
  2.1263368e-01
 -1.1308505e-02
  7.7594221e-03
 -2.1424755e-01
  1.0267184e+00
  1.9769256e-01
  9.7993515e-02
 -3.4430467e-02
  2.6570475e-01
  5.1092170e-04
  2.4971499e-01
 -2.7430660e-01
 -4.5573202e-01
 -7.1696930e-02
 -3.2248285e-05
  2.3167714e-01
 -1.2117163e+00
  9.8335946e-01
  3.4846240e-01
  2.2423582e-01
 -7.1925062e-01
  8.1756227e-02
  9.5761670e-03
  3.6052585e-02
  4.1348018e-02
 -1.3060217e-01
 -2.3196787e-02
 -4.6227524e-06
  1.3051625e-05
  7.5298783e-07
 -9.2224968e-07
 -5.7431753e-06
  3.4773848e-08
  3.2057000e-05
  1.2210888e-06
 -1.9370791e-06
  9.3463186e-06
  1.1972500e-06
  2.4739247e-05
 -5.3992931e-06
  7.2985599e-06
 -3.7001578e-06
 -2.7369617e-05
 -5.7940624e-06
 -7.0748769e-07
  3.1002046e-06
 -5.6805102e-06
  4.5516026e-06
 -2.6245370e-06
  6.2634140e-06
  4.2316606e-06
  6.1990545e-06
  1.6997388e-05
 -1.1748609e-05
  1.4512132e-05
  6.8745858e-06
 -9.7141799e-07
 -2.3137097e-06
  2.7571893e-06
  5.6937847e-06
  1.8652379e-05
 -1.3325265e-01
  4.0261348e-05
 -4.6036348e-06
  7.8381709e-06
  7.3277797e-06
 -3.7160601e-02
  1.4424942e-05
  2.3202813e-06
  2.1265751e-05
 -8.3236500e-06
  8.5775091e-06
  3.3058463e-06
  2.6322243e-06
 -1.4353300e-05
  5.3956633e-06
 -3.7998605e-06
  1.8319440e-07
  1.1509905e-05
 -6.2174222e-06
  4.6562636e-06
 -5.2001651e-06
  1.4650983e-06
  1.5898223e-06
  6.5921631e-07
 -3.5395146e-06
 -3.4723701e-06
 -5.0327740e-06
  1.7828621e-05
 -1.3430279e-06
 -7.7028681e-06
  9.3677354e-06
  6.2630602e-07
 -5.9452623e-06
 -8.0270902e-06
 -2.2922407e-06
 -8.8680883e-07
 -8.6760083e-06
 -6.5804097e-06
  6.8653862e-06
 -1.7578046e-05
 -1.5530268e-05
  6.3285508e-05
  2.6339676e-06
 -5.3181129e-06
  7.2300418e-06
 -1.5036494e-07
 -8.1696726e-06
  1.9008997e-06
  1.6624332e-06
 -3.4014411e-06
  3.9537383e-07
 -1.0245900e-05
 -1.8377222e-06
 -6.5887571e-07
  6.2507926e-05
  5.2860159e-06
 -3.7440823e-06
 -1.0346129e-06
 -6.8829750e-06
 -7.3706301e-06
  1.2128790e-05
  5.1281531e-06
  3.8084474e-06
 -1.2042949e-07
 -1.4655220e-05
 -8.9946263e-07
  1.5381871e-05
  1.4301688e-05
  1.1196551e-05
  3.7585512e-06
  4.1751937e-06
  2.5618197e-06
  4.6499863e-06
  3.1453435e-06
 -1.3318736e-05
  1.2591137e-05
 -6.2490126e-06
 -6.3166129e-07
  2.3262598e-06
 -6.2778549e-06
  1.0418155e-05
  7.1336049e-06
 -6.5887743e-06
 -9.1678685e-06
  6.7876176e-06
 -1.0336847e-05
 -1.3899782e-07
 -7.2892626e-06
  8.1726839e-06
 -6.8890272e-06
 -6.3315670e-06
  3.9255319e-06
  6.0806860e-06
 -2.9968263e-07
  1.2832519e-05
  3.7596441e-05
 -7.5564476e-06
 -4.3424716e-06
  1.6289848e-06
 -6.2150202e-06
  2.3040777e-05
  8.7704366e-06
 -1.3784478e-06
  1.8031595e-05
 -1.8020717e-05
  4.8096217e-06
  4.2104216e-07
  9.3849339e-06
 -5.5652959e-06
 -1.3699556e-05
  1.5974970e-06
 -1.2558532e-06
  5.8741796e-07
 -2.2370327e-06
 -3.6173051e-06
  7.1031536e-07
 -8.6522696e-06
  3.7459554e-06
 -8.2138185e-06
 -7.5364542e-06
 -6.5090221e-06
 -3.7936184e-06
 -8.6637820e-06
  3.8037811e-06
 -4.2812840e-06
  1.0341016e-05
  2.3937131e-05
  6.0361754e-06
 -9.9695990e-06
  2.0280529e-06
  2.6088774e-06
  5.2177320e-06
 -2.5662007e-06
  7.3275392e-06
  2.4972862e-06
 -3.6291201e-06
  4.5503866e-06
  1.4200881e-05
  1.2855752e-05
  1.5335689e-06
 -8.7734134e-07
  3.3248134e-06
 -1.4143875e-06
 -5.2759306e-06
 -2.6749324e-06
 -1.4042906e-05
 -1.5774698e-05
  4.4850534e-05
  9.3633089e-06
  1.2850815e-05
  5.7319958e-06
 -6.7544638e-06
  1.0049632e-05
  1.9018939e-06
  1.3892748e-06
 -1.0374388e-06
 -1.5385156e-05
  1.4722941e-05
 -1.4258492e-06
 -1.8100043e-05
 -7.2123557e-06
 -5.5843884e-06
  6.0436560e-06
 -6.0219804e-06
 -6.2735131e-07
  7.7054819e-06
  2.1027074e-06
  2.5478298e-06
  3.7462453e-06
 -8.6824463e-07
  6.6826469e-06
  1.9700430e-05
 -6.0064367e-06
  7.4637710e-06
  1.3319892e-07
 -1.8331641e-06
 -2.3492647e-03
 -2.1765858e-05
 -4.1622025e-06
 -5.0990161e-06
  3.6102595e-06
  3.0875858e-06
 -1.1253114e-06
  1.6381076e-05
 -3.5294070e-05
 -6.7102954e-02
  7.7733682e-07
 -8.0540331e-06
 -5.5915616e-06
 -2.3754745e-07
  1.0271037e-08
 -1.5329259e-05
  1.1394510e-05
  1.5560967e-05
 -1.3135224e-05
  9.8393484e-06
  1.7592357e-06
 -4.4543583e-02
 -1.5305005e-01
 -8.7585522e-07
 -1.2998966e-06
  1.6537459e-06
 -4.5969186e-06
  8.7515828e-06
  1.3318699e-05
 -5.1551378e-06
 -8.1662476e-01
  5.8609348e-06
  3.0953383e-05
  1.1514889e-05
 -6.2887370e-06
  4.6172845e-06
 -1.3897303e-05
 -1.6736319e-06
  8.4147805e-06
 -8.3461612e-01
 -3.2885430e-07
  9.9810522e-06
  4.2232846e-06
 -2.9400749e-06
  6.9122511e-06
  1.4248358e-05
  4.0481490e-07
 -3.9931110e-05
 -3.4668130e-01
  2.2235210e-05
 -1.4737432e-06
  8.4216487e-01
  1.8601085e+00
 -5.2712849e-06
  1.2265313e-01
 -3.7700474e-06
 -5.2978430e-06
 -6.6960629e-06
  8.4829098e-06
 -5.8378569e-06
  4.9407773e+00
  7.4565783e-02
  1.5403830e-05
 -1.6966501e-02
  6.9617522e-01
  5.0910729e-01
 -4.8063377e-01
  8.2482075e-07
  2.1328827e-02
 -1.4668773e-01
  1.1245355e-01
  7.9117483e-01
 -3.7179706e-01
  5.3333037e-02
 -2.6423189e-01
 -1.1492790e-05
  1.7876282e-01
  1.9028029e-01
 -1.7166732e-01
  9.9554884e-01
 -3.2456341e-01
 -1.9920976e-01
  3.3032337e-01
  4.2403892e-02
 -2.0007183e-01
  3.1378511e-01
  8.6818583e-02
 -4.5712505e-02
 -1.3997669e-04
  2.1616072e-06
  2.1123536e-02
  8.6384855e-02
 -8.1923556e-01
  1.4002357e-01
 -1.2180246e-01
 -1.5807414e-02
  2.2096866e-01
  2.9476067e-01
  1.9845083e-01
  4.0640804e-01
 -4.8652321e-01
  2.1136971e-01
  3.5753065e-01
 -6.5552402e-01
  8.9869261e-01
 -3.6887001e-02
  8.1822105e-02
 -4.3398091e-01
 -3.2843894e-01
  5.9645474e-02
  1.4561568e-01
 -7.4716139e-01
 -7.9577321e-01
 -3.1087038e-01
  3.7203541e-01
  5.9490198e-01
 -6.3526139e-02
 -6.2392749e-02
 -5.4464293e-01
 -9.8660213e-01
  3.7826914e-01
  4.8108622e-01
 -9.2615271e-01
 -3.7825620e-01
  8.0320615e-01
  2.8584269e-01
 -2.4989331e-06
  3.0309454e-01
 -9.9708372e-01
  5.4405195e-01
  3.3730021e-01
 -9.0802985e-01
  4.6068713e-01
  2.9570585e-01
 -4.1593212e-01
  9.3139835e-02
  6.9084419e-03
 -7.7984363e-01
 -4.3572357e-01
 -3.4134250e-02
 -9.9996105e-02
  2.6735923e-01
 -8.1470430e-01
 -2.5146624e-01
  6.6731274e-01
 -7.0739412e-01
 -1.2584411e-01
  4.2514421e-02
 -1.6599089e-01
 -1.5285414e-01
  3.4663892e-01
  1.7630436e-01
  2.9723117e-01
 -2.9407778e-01
  1.1929054e+00
 -8.0653322e-01
  1.0354146e-01
 -1.5668690e-01
  3.2254380e-01
 -8.4465021e-01
 -9.3259104e-02
  5.1110697e-01
  3.0476171e-01
 -2.9720587e-01
 -5.1563352e-01
 -2.7584022e-02
 -1.0127148e-05
 -2.6123756e-01
  4.2012054e-02
 -1.3024006e+00
  7.6562881e-01
 -8.6533564e-01
 -2.0244002e-01
 -8.4343517e-01
 -1.1415444e-01
 -7.5451046e-02
 -7.8664750e-01
 -5.3219044e-01
  1.4611241e-01
 -3.5667226e-02
  2.5541291e-01
 -6.3502067e-01
 -9.7124058e-01
  7.5798339e-01
 -4.4312713e-01
  7.5259233e-01
  3.1051910e-01
 -1.1145378e+00
  3.8949770e-01
 -3.1047609e-01
 -1.1165249e-01
  1.5960599e-01
  1.5960599e-01
  1.5960599e-01
  1.5960599e-01
  1.5960599e-01
  6.2504369e-01
  6.2504369e-01
  6.2504369e-01
  6.2504369e-01
  6.2504369e-01
  3.2077599e-01
  3.2077599e-01
  3.2077599e-01
  3.2077599e-01
  3.2077599e-01
  2.7106140e-02
  2.7106140e-02
  2.7106140e-02
  2.7106140e-02
  2.7106140e-02
  2.5516443e-02
  2.5516443e-02
  2.5516443e-02
  2.5516443e-02
  2.5516443e-02
  6.0879916e-01
  6.0879916e-01
  6.0879916e-01
  6.0879916e-01
  6.0879916e-01
