nep3 2 H O 
cutoff 8 6 328 152
n_max 8 8
basis_size 8 8
l_max 4 2 1
ANN 50 0
 -8.3687246e-01
 -9.4713491e-01
 -4.3024808e-01
 -2.5015986e-01
 -4.3218970e-01
 -7.9526335e-01
 -2.7486064e-02
 -8.6873174e-01
 -7.6047266e-01
  1.7667938e+00
  1.0221009e-01
 -8.4040952e-01
  2.0986428e+00
 -3.0155191e-01
 -4.9794236e-01
  1.2305272e+00
 -1.1785808e+00
 -3.0096531e-01
 -4.4186193e-01
  1.2431197e+00
 -6.6521871e-01
  5.6409854e-01
  4.3404612e-01
 -1.1469436e-01
 -1.9681358e-01
  1.1027617e+00
  7.5612628e-01
  3.1716949e-01
  9.8452479e-01
 -2.2167438e-01
  6.7873396e-02
  8.8820833e-01
 -2.2417635e-02
 -4.8582229e-01
 -1.1120322e+00
  2.3929153e-01
 -2.7343025e+00
 -2.3360679e-01
  1.1642083e+00
 -6.7508781e-01
 -1.0654249e+00
 -5.0528437e-01
 -2.0146936e-01
 -7.8672785e-01
  1.7957184e-03
  5.4766822e-01
 -5.4285294e-01
  2.0420474e-01
 -9.0593612e-01
  4.4142261e-02
 -1.1464056e+00
  8.8507032e-01
  8.4581301e-02
  3.1548920e-01
 -1.2817848e-01
  1.2289709e+00
 -9.8337203e-01
  5.5231489e-03
 -2.5302095e+00
  5.8914557e-02
 -9.4063425e-01
 -6.6663408e-01
 -9.6293408e-01
  3.2215950e-01
  1.3021264e+00
 -5.3853434e-02
  6.1321503e-01
 -8.3529395e-01
 -4.7960049e-01
 -1.2966399e+00
  3.5467389e-01
  7.6924246e-03
  2.3257127e-01
  2.9736931e+00
 -1.9809710e+00
 -2.6198603e-02
  2.3782887e+00
  3.4177380e+00
 -6.9353789e-01
  6.6935606e-02
 -1.2318363e+00
  2.0891219e-01
 -1.1056103e+00
 -2.5587561e+00
  2.0223546e+00
  1.2490218e+00
  1.3852423e+00
  8.3507800e-01
  1.3512218e+00
  1.7606857e+00
 -7.4888641e-01
  1.3001697e+00
 -4.1552353e+00
 -3.3380452e-01
  2.2668881e+00
 -6.4302921e-01
 -1.6117524e+00
  3.5871205e+00
  2.8098574e-01
 -1.6719574e-01
  1.6292028e+00
 -4.7232971e+00
 -1.0677233e+00
  2.4086108e+00
 -1.5781039e-01
 -9.1727763e-01
  5.5376166e-01
 -2.1112186e-01
 -3.2087076e-01
  2.7252769e-01
 -2.2095723e+00
 -8.1013757e-01
 -7.3601794e-01
  1.5251702e+00
 -7.4551326e-01
 -3.7947285e-01
 -3.7124109e-01
 -1.6229260e-01
  1.0873151e+00
  1.1510358e+00
  5.0399649e-01
  4.1804874e-01
 -3.4441459e+00
  1.0009288e+00
  2.4145932e+00
  6.4798439e-01
  1.4367616e+00
 -1.7799008e+00
  1.1384757e+00
 -1.2115254e-01
  7.8379691e-01
  3.3520478e-01
  1.0147101e+00
 -9.9017993e-03
 -6.3985550e-01
 -4.6130702e-01
  1.2460986e+00
 -5.8359366e-02
 -6.6337270e-01
  8.2048172e-01
  2.2581419e-01
 -1.0590180e+00
 -2.6271245e+00
  7.5697446e-01
 -5.5316329e-01
 -4.1622519e-02
  2.4254453e-01
 -3.3357673e+00
  1.3456116e+00
  1.7463644e+00
  2.9958708e+00
  1.1716387e+00
  5.6035256e-01
 -1.6095147e-01
  1.3944464e+00
  3.8871734e+00
 -2.1627623e-01
 -2.2343993e-01
  1.4527301e+00
 -2.7837620e+00
 -4.2638391e-01
 -4.5453206e-02
  1.3820086e+00
 -2.9867413e+00
  4.6606255e-01
 -1.7280936e-01
 -7.5951976e-01
  1.8149478e+00
  6.1472499e-01
  1.7405847e-01
 -1.3527156e+00
  5.8542639e-01
  1.8865491e+00
  2.1151401e-01
 -1.1528300e+00
 -1.2013724e+00
 -4.5680144e-01
 -8.0740672e-01
 -7.2769254e-01
  2.3579414e+00
 -1.8232046e-01
 -1.8596411e+00
  1.3200331e-01
  1.9050859e+00
 -1.3493439e+00
 -1.4954184e+00
  2.5757661e-01
 -1.2198082e+00
 -6.0967132e-02
 -1.0937050e-02
 -1.9067885e+00
 -5.7553422e-01
 -7.9231456e-02
 -1.8297341e+00
  5.4874772e-01
 -7.8047425e-01
  1.5873495e-01
  9.4364345e-01
 -6.4415395e-01
 -1.6516523e-01
 -1.3991259e+00
 -1.2424761e-01
 -3.5395229e-01
 -1.8201180e-01
  7.4323010e-01
  2.7687063e+00
  4.3569142e-01
 -7.3177785e-01
  9.6694309e-01
  1.7576219e-01
 -3.8561907e-01
 -1.8425932e+00
 -8.1830573e-01
 -9.0589106e-01
 -5.6112409e-01
  9.9073839e-01
 -5.3363100e-02
  1.8358418e-01
 -4.2764583e-01
 -1.1129045e+00
 -1.2425691e+00
  1.1213179e+00
  5.7325697e-01
 -2.9950190e-01
  2.1495339e-01
 -5.0318134e-01
 -1.2879874e-01
  5.9032071e-01
 -2.6984110e-01
  3.9072293e-01
  6.5737653e-01
 -1.8795743e+00
  1.2543694e+00
 -1.5505537e-02
  9.5312285e-01
 -1.1763750e-01
 -5.1168127e+00
  2.4035800e-01
 -2.7431667e-01
 -1.2348036e+00
  1.0326307e+00
 -5.3295571e-01
 -5.6922328e-01
  8.0031157e-02
  2.1836102e-01
 -2.3301858e-01
 -1.2106428e+00
 -3.4580165e-01
  1.8741271e-01
 -6.1214530e-01
 -2.5877583e+00
  3.4040713e-01
 -1.7502546e-01
 -2.5763333e+00
  2.9032285e+00
 -1.2260804e-01
  2.6902547e+00
 -9.5296776e-01
  1.9004664e-01
 -3.5662508e-01
  6.7223758e-01
 -3.3006001e-02
  3.9534926e-01
  3.0047562e+00
  9.8329559e-03
  1.2052318e-01
 -4.2602462e-01
 -5.4373640e-01
 -4.8297170e-01
 -1.0813042e+00
 -4.4481558e-01
 -3.5117042e+00
  2.4989529e+00
 -5.3986877e-01
 -1.9652605e+00
  4.3174610e-01
  3.5575321e-01
  2.7838773e-01
  2.9912287e-01
  4.2796627e-02
 -3.6791727e-01
 -3.4833822e-01
 -6.7134678e-01
  1.8119982e-01
  7.0387073e-02
  1.3692367e+00
  3.1611019e-01
 -7.2270316e-01
 -8.8149118e-01
 -5.4237068e-02
 -2.5468943e+00
 -1.3211932e+00
 -2.6394405e+00
 -3.9379221e-01
  2.4070513e+00
 -1.4902434e+00
 -1.3639245e+00
  1.4562609e+00
 -4.8010778e-01
  5.7166266e-01
  1.0507318e+00
 -1.8733545e-01
  2.2672796e-01
  2.1922908e+00
  7.1605045e-01
  2.3734252e-01
 -1.0078672e-01
  8.9233845e-01
 -1.1949361e-01
  5.3150082e-01
 -6.5187585e-01
  2.5138772e-01
 -3.2539630e-01
  6.7829967e-01
 -4.5072797e-01
 -4.9310511e-01
  1.2326612e-01
  1.1978453e+00
 -2.0503643e+00
 -5.2294451e-01
 -2.7335438e-01
  2.2207143e+00
  1.3156155e-01
 -9.4387138e-01
 -4.1527322e-01
 -1.4562392e-01
 -5.8264142e-01
 -2.7514958e+00
  9.3716079e-01
 -6.7914033e-01
 -8.5369451e-03
  3.1042445e-01
 -3.2073724e-01
 -1.4161278e-02
 -1.1243956e+00
 -2.7123086e+00
  1.7357707e+00
  7.6891083e-01
  8.6138058e-01
 -1.2000165e+00
 -6.8856025e-01
  8.1907076e-01
 -1.4843496e+00
 -6.3907522e-01
 -1.0490381e+00
  5.8381027e-01
  3.1818777e-01
 -1.6250634e+00
 -6.9141805e-01
  6.2724181e-02
 -9.6700048e-01
 -3.4137264e-02
  2.4097960e-01
 -3.4655002e-01
  1.5253873e+00
  2.6646388e+00
 -1.2414767e-01
 -4.6237314e-01
  1.2689703e+00
  9.0820575e-01
 -2.4567991e-01
 -1.4530813e+00
 -4.7227412e-01
 -3.1424969e-01
 -5.4412574e-01
  5.6116605e-01
 -6.0470372e-01
  3.3784276e-01
 -2.5106755e-01
 -5.7455301e-01
  1.1663863e-01
  3.0275130e-01
 -6.8126392e-01
  8.3278492e-02
  1.1472970e-01
  1.7770330e+00
  1.9753800e-01
 -2.7212977e+00
  1.3472931e+00
  1.6169832e+00
  3.6655301e-01
  2.9664829e-01
  5.5929422e-01
 -5.4694004e-02
 -2.3179634e-01
  1.6518992e+00
 -8.3491927e-01
 -6.7039531e-01
 -1.1465914e+00
 -7.8258687e-01
  9.9539950e-02
  1.1603298e+00
  8.9971858e-01
  7.3435152e-01
  4.9359488e-01
 -2.1407026e-01
  3.1241655e-02
 -1.1586984e+00
 -6.7619634e-01
  6.5310711e-01
  1.7491786e-01
 -1.6820896e-01
 -1.1070408e+00
  2.7773786e-01
  4.2505899e-01
 -4.5264804e-01
 -1.9088802e-01
 -2.7000473e+00
  9.3428075e-02
  6.7374802e-01
  2.3385726e-01
 -1.6328316e+00
  7.2477281e-01
  1.2977488e+00
  1.0965817e+00
 -1.5237418e+00
 -6.4155108e-01
 -1.4719859e+00
  9.2891783e-02
 -4.3506509e-01
  8.2681090e-01
 -7.0509279e-01
  8.3846289e-01
 -5.0145334e-01
  9.9348322e-02
  9.3726248e-01
 -4.2472070e-01
  6.6005921e-01
  6.9474943e-02
 -4.1096711e-01
 -5.1699847e-01
  3.6148050e-01
 -4.7912166e-02
 -1.5370076e+00
  2.8795493e+00
 -3.2260224e-01
  1.1586393e-01
  1.2590005e+00
 -4.4463858e-01
 -3.8086879e-01
  4.6677485e-01
  2.3995569e-01
  2.2811792e+00
  5.9042978e-01
  2.9183509e+00
 -2.1275248e-01
  1.7292042e+00
 -2.3860729e+00
  7.0299512e-01
  3.3127302e-01
  1.3916790e+00
  2.4055598e+00
  1.5722457e-02
  2.0336003e+00
 -5.8198416e-01
  5.9504700e-01
 -1.3095673e+00
 -2.2505254e-01
  2.3182970e-01
  2.1859021e+00
 -2.7440172e-01
 -3.1587443e+00
 -2.2983514e-01
  6.2266630e-01
  2.2075782e+00
  9.8831795e-02
 -9.0891980e-03
 -2.9560781e+00
 -5.0428158e-01
 -1.0183209e+00
 -2.2279446e+00
  4.8465970e-01
  3.8658294e-01
  1.0120151e+00
  1.0623721e-01
  3.3309636e+00
 -2.1979470e+00
  7.2913665e-01
  1.0990644e+00
  1.8808242e+00
  1.1386042e+00
 -3.2324533e+00
 -1.4869130e-01
 -5.5740710e-02
  2.2793846e+00
  3.1468763e+00
 -7.2816777e-01
  2.2289071e+00
  2.4051147e+00
  1.3479470e-01
  2.2736661e+00
  9.2217427e-01
 -1.3132914e+00
  1.9277391e+00
  3.7858737e-01
  1.1214067e+00
  5.0638998e-01
  3.6445779e-01
  5.1552039e-01
 -5.9171401e-02
 -1.6494198e+00
  3.9899629e-01
  7.2579610e-01
 -1.3853815e+00
 -4.5795178e-01
 -6.0201954e-02
  7.1613833e-02
  6.6331975e-02
  1.9195406e-01
  1.2128148e+00
 -9.0051883e-01
  4.4472507e-01
  9.2375296e-01
 -6.6193593e-01
  1.4672929e-01
  4.3752974e-01
  2.5579618e-02
 -2.1435874e+00
 -1.1576116e-01
  1.7056648e-01
 -3.9230168e-01
  6.9210081e+00
  6.1601526e-01
 -2.3168135e+00
  8.4646332e-01
 -2.9247540e-01
 -6.7716259e-01
  1.6302745e-01
 -2.9068959e-01
 -7.9409599e-01
 -1.2568845e+00
  1.4446940e+00
 -2.0555875e+00
  1.9005487e+00
  2.1958095e-01
 -1.2050568e+00
  1.3652397e+00
  1.3877384e-01
 -8.1283337e-01
 -1.7229019e-01
 -2.5908208e-01
 -5.8570266e-01
 -8.0217578e-02
  5.3381664e-01
  6.2792850e-01
  2.2930644e-02
  6.1763459e-01
 -4.9511772e-01
 -4.0253195e-01
 -1.5809384e-01
  5.6545148e+00
  7.3497027e-02
 -1.0106699e+00
 -1.1461587e+00
 -1.0267091e-01
 -4.8349643e-01
 -8.4442717e-01
 -3.0376873e+00
  5.5422616e-01
 -6.3706249e-02
  7.0219755e-01
 -2.8415608e-01
 -1.0620859e+00
  3.7543893e-01
  1.2836806e-01
 -3.4656283e-01
  8.6402178e-01
 -6.5704428e-02
 -1.4143434e+00
 -6.6822559e-02
 -2.2525289e+00
 -4.0195659e-01
  1.9859949e+00
  4.9227202e-01
  4.3064150e-01
  2.1533802e-01
  1.0418688e+00
 -8.4007823e-01
  2.0815914e+00
 -3.4180731e-01
  5.0965184e-01
  2.3335712e+00
  7.1746334e-03
 -7.2288626e-01
 -2.4689136e-01
  4.1416898e-02
 -4.1135230e+00
 -4.5508800e+00
  3.4574585e+00
  1.4125844e+00
 -2.4953620e+00
 -2.4184331e-02
 -1.4811764e+00
  8.5070384e-01
 -9.2137277e-02
  8.9084899e-01
  1.6101946e+00
 -6.2146544e-01
  1.2678709e+00
  1.1924111e+00
 -9.0595067e-02
 -7.3953766e-01
  8.7790179e-01
  7.1864611e-01
 -1.5859270e-01
 -1.4433939e+00
 -7.8479511e-01
  1.6359150e-01
  2.1687584e+00
  1.8267468e-02
 -2.8385815e-01
  9.0339994e-01
  2.4846011e-01
  3.6330661e-01
 -8.0207640e-01
 -8.9052778e-01
 -5.4568194e-02
 -4.6721137e-01
 -1.2452382e-01
  1.8985629e-01
 -8.5459936e-01
 -2.6423627e-01
 -3.2006609e-01
 -3.2834703e-01
 -5.6376874e-02
  4.3541865e+00
  4.8490003e-02
 -6.3258618e-01
 -2.6443809e-01
  1.4049394e-01
 -1.6234200e+00
 -1.5272033e+00
  3.0506983e-01
  1.7310340e+00
 -9.3519074e-01
 -8.3533299e-01
 -1.1086993e+00
 -1.6134075e+00
 -7.4796605e-01
 -1.2474582e+00
  8.3910570e-02
  6.8847280e+00
 -5.3081346e-01
 -1.0968062e+00
  4.1700041e-01
  1.5999888e+00
 -4.8849347e-01
 -4.0625131e-01
 -2.1899538e+00
  6.7894712e-02
  1.2224407e+00
 -2.1200550e-01
 -1.5393122e+00
  7.5971097e-01
  4.9046472e-01
  2.1714218e-02
  1.4566976e-01
  5.9070051e-01
  1.0070360e-01
 -9.0635097e-01
 -2.1234657e-01
  5.0557411e-01
  2.2496468e-01
  7.4915618e-01
 -8.2865357e-02
  2.4101572e-01
 -2.3150258e+00
  1.3407583e+00
 -6.3516349e-01
  5.9008896e-01
 -2.2508893e+00
  2.3322813e-01
 -1.2249559e-01
 -3.6754683e-01
 -2.6826543e-01
 -3.7384212e-01
 -5.6126404e-01
 -1.2974104e-01
 -1.4651586e-01
 -5.1896864e-01
  1.7663500e-01
  5.2579206e-01
 -9.5093870e-01
 -4.0043160e-01
 -3.0224109e-01
 -5.3706276e-01
 -1.4001737e+00
 -4.3632817e-01
  7.6500446e-01
  3.1440058e-01
 -4.4268346e-01
  9.7179568e-01
  4.0903091e-02
  1.7204609e+00
 -1.6406938e+00
  1.2922206e+00
  2.4094082e-01
  1.1825945e-01
 -1.0730286e+00
  8.1144053e-01
 -1.0199598e-01
  1.9816860e+00
  8.2849121e-01
 -1.3101993e+00
 -1.1096642e+00
 -2.8925592e-01
  1.2284575e+00
 -2.2450042e-01
  2.8524378e-01
  1.2291844e+00
  1.5954599e+00
 -7.6809961e-01
  2.9179521e+00
  1.3004895e-01
  3.1624467e+00
  2.6491609e-01
  3.3222730e+00
 -1.5255405e+00
  2.7889278e+00
  4.8771504e-01
  2.2920794e+00
  6.4334732e-01
 -1.4685168e+00
  2.1106520e+00
  1.2539593e+00
  1.2102919e+00
  1.4088054e+00
 -8.1012642e-01
 -2.4310579e+00
 -9.8803675e-01
  1.4607116e+00
 -2.3086808e+00
 -2.6470091e+00
  2.4459889e+00
  1.4805965e+00
  1.4193189e-01
  7.4679142e-01
 -1.7786604e+00
  1.0691124e+00
 -3.4989657e+00
 -2.6567016e+00
  1.2674822e-01
  1.8592690e+00
  2.5106183e-01
 -1.8974814e-01
  3.2658660e-01
  3.0367210e+00
 -1.2496267e-01
 -6.5443110e-01
  6.7045045e-01
  8.4825897e-01
 -2.7186736e-01
 -1.6001428e+00
 -1.1449087e+00
 -5.8352506e-01
 -1.6238245e+00
 -2.7978151e+00
  1.7991568e+00
 -9.9938166e-01
  2.8980324e+00
  5.8591294e-01
  1.1576579e+00
 -1.4837512e+00
  3.0255011e-01
 -2.9462078e-01
 -6.2910438e-01
 -3.5531674e-02
 -1.2049075e+00
 -1.1229478e+00
 -2.6793751e-01
 -9.2178214e-01
  7.7618861e-01
  7.6129997e-01
 -1.4646213e+00
  4.8114780e-01
 -6.7024064e-01
  6.7349464e-02
 -5.8639997e-01
  3.1479317e-01
 -3.8818413e-01
  3.6069475e-02
 -7.6901734e-01
 -4.1844410e-01
  1.2814099e-01
  1.0902077e+00
 -1.2397387e+00
 -6.1519217e-01
 -6.6373956e-01
 -2.8637121e+00
 -8.3616251e-01
  1.6950383e+00
  2.7251182e+00
  9.1387317e-02
  2.1987944e+00
  3.0349144e-01
 -6.7459506e-01
 -2.4080234e+00
 -3.5990137e-01
  1.3928112e+00
  5.6021726e-01
  7.9438701e-02
  1.1018940e-01
 -2.2103307e-01
  1.4459258e+00
 -2.9291281e-01
  3.3740538e-01
  2.7532768e-01
  5.1020521e-01
 -7.6013982e-01
 -8.2682151e-01
  1.6676022e+00
  1.1306032e-01
  7.7506864e-01
 -3.4223855e-02
  9.2159063e-03
  5.4009372e-01
 -4.7054946e-02
 -2.1815875e-01
 -3.5643905e-02
  1.6135380e+00
 -1.9701587e-01
  3.4028777e-01
  3.3850402e-01
 -1.4636418e+00
 -1.2434697e+00
 -1.2089573e+00
 -1.0118908e+00
  7.1582866e-01
  1.6491705e+00
  1.7356649e-01
 -8.9437550e-01
  4.0798035e-01
 -1.1870865e+00
  3.0587909e+00
  1.2239343e+00
 -2.3870618e+00
 -1.4396062e+00
  1.1259233e+00
 -2.0272083e+00
 -1.1728784e-01
  2.1465940e+00
 -8.6617607e-01
  6.4730108e-01
 -4.6362981e-01
  8.3101457e-01
  8.8479131e-01
  2.7998164e-01
  6.6262209e-01
 -2.6325803e+00
 -1.0407617e+00
  9.5325124e-01
 -1.2384808e+00
  1.2147548e+00
 -1.9575715e+00
  8.2715362e-01
  1.7850208e-01
  1.2659463e+00
  1.8237520e-02
  5.1778138e-01
  9.3594566e-02
 -2.8377739e-01
 -1.7084379e-01
  1.3464261e+00
 -1.8434796e+00
  1.0794928e+00
 -3.5087183e-02
  7.6087463e-01
  1.4791708e+00
 -5.4019427e-01
 -2.1241124e+00
 -2.1988976e-01
 -3.2593935e+00
  2.6272166e+00
 -3.8103718e-01
  2.3489177e-01
 -5.9024763e-01
 -5.0267798e-01
  7.5075060e-01
 -3.8648945e-01
 -1.5692514e-01
  4.1697520e-01
 -1.3769813e-02
  4.1396880e-01
 -5.6194222e-01
  1.4460793e+00
  3.5190284e-01
  4.5959771e-01
  2.1987528e-01
  1.9009119e+00
 -9.4542211e-01
  1.3669155e+00
  3.9656231e-01
 -6.2107533e-01
 -4.2660776e-01
 -5.1517844e-01
  4.0710360e-01
  1.3730025e+00
 -6.0831616e-03
 -1.1587280e+00
  1.4349185e+00
 -3.3790031e-01
  1.5319849e+00
  5.2588892e-01
  9.3879157e-01
  1.9516611e-01
  6.5058637e-01
 -2.2885621e+00
  2.8248928e-02
  3.3196259e-01
  3.3755097e-01
  1.5945505e-01
 -4.3603638e-01
  7.8321433e-01
  2.0882678e+00
  3.1019133e-01
 -1.0162240e+00
 -1.9603626e-01
  2.9862568e-02
 -4.9186310e-01
  2.4013305e-01
 -5.5191052e-01
  6.0863024e-01
 -1.1842546e+00
 -8.9778101e-01
  3.6947450e-01
 -1.5604305e+00
 -9.0508223e-01
  4.5044842e-01
  1.9717071e+00
 -3.6765143e-01
  1.3348796e+00
  7.1612477e-01
  1.2385722e-01
 -4.0192035e-01
 -7.2615069e-01
  5.0076360e-01
  1.4690338e+00
  1.2003957e+00
 -2.5343451e-01
  1.2078345e-01
 -1.6326249e-02
 -4.3178624e-01
 -8.9518887e-01
 -6.6734034e-01
 -4.8237395e-01
 -1.9734449e+00
  6.3225436e-01
  1.6104635e+00
  5.3727359e-01
  5.5091947e-01
 -6.2284613e-01
 -1.3914870e+00
  6.9949228e-01
 -9.0320075e-01
 -2.8564471e-01
 -1.2879089e+00
 -1.6405847e+00
  3.2646379e+00
  2.7332597e+00
  1.4287448e+00
  6.6809696e-01
  2.0661907e-01
  1.4939730e+00
  1.4190495e-02
  1.3321531e+00
 -1.3645935e+00
 -9.8668450e-01
  1.2997686e+00
  1.0508867e-01
 -1.0778533e+00
  2.8073177e+00
 -2.0946519e+00
 -7.6459044e-01
  1.6452870e+00
 -6.7283911e-01
 -8.5779059e-01
  1.0134017e+00
  1.8037410e+00
  6.3584572e-01
  1.1888685e+00
 -2.9353350e-01
 -5.4400921e-01
  1.0254041e+00
  7.6304245e-01
 -5.7744287e-02
  3.0259597e-01
 -3.5791022e-01
  1.2404057e+00
  1.1063192e+00
  1.9262919e-01
  9.1886455e-01
  1.1059245e-01
 -1.9934489e-01
 -9.2862494e-02
 -2.4692640e+00
 -2.6687210e+00
  9.3676066e-01
 -1.0319509e-01
  1.2658246e+00
  5.2963793e-01
  7.5471878e-01
  4.6148375e-01
 -6.8419981e-01
 -4.5322485e-02
 -1.4452352e-01
 -8.5327417e-01
 -2.3951656e-01
 -1.8205878e-01
  1.5733407e+00
 -1.0217282e+00
 -1.9602308e-01
 -8.2458276e-01
  6.3928142e-02
 -8.7529886e-01
 -1.5272541e+00
 -1.7230141e-01
 -6.9153821e-01
  4.8379874e-01
 -1.7220187e+00
 -9.5676261e-01
  1.9169141e+00
 -2.9357824e-01
 -4.9733871e-01
 -7.1709788e-01
 -9.0149295e-01
 -2.4722297e-01
  9.5756352e-04
  5.3636724e-01
 -1.8651223e+00
  5.1733893e-01
 -7.1186787e-01
 -2.7130139e-01
 -1.5616729e+00
  3.6841553e-01
 -5.3824234e-01
  2.2990355e-01
 -7.7606291e-02
  2.1298574e-01
  1.2748706e+00
 -1.9545552e-01
  1.2989769e+00
 -3.8652149e-01
 -2.9689544e-01
  7.2835815e-01
  1.5036275e+00
  1.1679895e+00
  1.0802495e+00
  3.9758658e-01
 -9.7522217e-01
 -2.9293942e-01
  1.9588170e+00
  4.0082139e-01
  3.8524151e-02
  1.2706640e-01
 -1.0811177e+00
  1.8447271e-01
  3.6879637e+00
 -1.1924106e+00
 -4.7457018e-01
  8.0374831e-01
  1.9559305e-02
  7.5769410e-02
  9.0779769e-01
 -4.6168700e-01
 -5.2100325e-01
 -8.8814771e-01
  1.9329356e+00
 -2.4132462e-01
 -4.6977097e-01
 -2.3720088e+00
  1.5608239e+00
 -1.2775882e+00
 -8.0262649e-01
  1.2436084e+00
  2.1076623e-01
  1.4474567e+00
  1.9532509e-01
 -1.7216685e+00
  1.3512408e+00
 -4.3652132e-01
 -6.0751551e-01
 -4.1211710e+00
  2.1091504e-01
 -2.1330884e+00
  6.5801316e-01
 -5.3458500e-01
  1.5277801e+00
 -8.7053068e-02
 -8.8571019e-02
  9.0327543e-01
 -3.3715587e+00
 -8.4059000e-02
  1.7837791e+00
  8.0893844e-01
 -9.9659443e-01
 -8.0030406e-01
  2.7461319e+00
  1.0382349e+00
 -6.3446295e-01
 -5.8899611e-01
 -3.7992375e+00
 -4.7722709e-01
  1.6749775e-01
 -1.1765728e+00
 -5.5024880e-01
  1.5599647e+00
  8.1803423e-01
  4.6376920e-01
 -1.1281080e+00
  5.3670204e-01
 -4.3388858e-01
 -7.2291601e-01
  1.0397635e+00
 -2.2495945e-01
 -4.2802420e-01
 -3.2236850e-01
  2.1528918e-01
  1.9538167e+00
 -2.2478659e+00
  9.4446522e-01
  1.0517898e+00
 -2.3796568e+00
 -1.7640364e+00
 -9.9073339e-01
 -4.5162761e-01
 -1.0123082e-01
  1.0447774e+00
  3.3969513e-01
  7.4511898e-01
 -4.8928922e-01
  4.6473879e-01
  4.4108123e-02
  6.9835180e-01
  1.8963975e+00
  7.3127240e-01
  6.0840788e+00
 -1.2960784e+00
 -2.1894798e-01
 -3.2400193e+00
 -8.1604505e-01
 -2.4349587e+00
  1.2318114e+00
 -1.1199472e+00
 -7.0763254e-01
 -1.2749639e-01
 -2.8561249e-01
  1.3935204e-01
  1.1185317e+00
 -2.0956097e+00
  8.9952683e-01
  1.7361028e+00
 -1.4546565e+00
 -1.6143712e-01
 -4.6203393e-01
 -8.6698043e-01
  1.2406149e+00
 -9.9909085e-01
 -1.2733981e-01
 -2.3071773e-01
  9.5100963e-01
 -1.1525652e+00
  8.3967966e-01
  2.8735697e-03
  9.8409754e-01
 -4.1725242e-01
 -2.1543668e-01
  1.3041919e-01
 -1.2436693e+00
  1.0925153e-01
  3.4647810e-01
  2.1262045e-01
 -1.9001082e-01
 -5.8623070e-01
 -7.7811211e-02
  1.9396496e-01
  3.2890406e-01
 -1.2151148e+00
  1.3178539e-01
  9.7346336e-02
  8.4557754e-01
  2.6815632e-01
 -1.4175831e+00
 -2.5929534e-01
  2.3059897e+00
  3.6666512e-01
 -6.3490021e-01
 -2.0987172e-01
  4.4766921e-01
  1.0129023e+00
 -2.1211432e-01
  5.2518761e-01
  1.7932626e+00
  6.4463472e-01
 -5.4849881e-01
  1.9026722e+00
 -1.3677016e+00
 -3.8626233e-01
  2.0173874e+00
 -2.0306158e+00
  1.6870959e+00
 -2.1657576e-01
  1.5194688e+00
  1.7846150e+00
  4.5486030e-01
  2.1695173e+00
 -1.9430976e+00
  2.4601138e+00
 -1.6576205e-01
 -4.6131506e+00
  6.3101923e-01
 -4.7862127e-02
 -8.8828367e-01
 -1.9984812e+00
  5.2723461e-01
 -1.8096117e+00
  7.9971153e-01
 -2.3445981e+00
 -1.1293497e+00
  7.8166515e-01
  5.7862923e-02
  2.5140340e+00
  5.0446969e-01
  2.2822800e+00
 -1.3508865e+00
  1.9345335e+00
 -2.4198382e+00
 -8.1740201e-01
  8.2549596e-01
 -9.2546433e-01
 -2.4206650e-01
 -1.3965802e+00
  2.7437901e+00
  6.6803527e-01
  1.9326179e+00
 -1.2435552e+00
 -9.4489950e-01
  9.3774784e-01
  8.7493235e-01
 -1.7971210e+00
  7.7732986e-01
 -1.3578267e+00
  4.9570927e-01
  4.5176823e-02
  3.9624366e-01
 -2.2434597e+00
  4.2652896e-01
 -3.2529300e-01
 -5.6432939e-01
  2.0060229e-01
 -8.6798504e-02
 -3.5353485e-01
  2.9195752e-02
  2.2875826e-01
 -8.0364710e-01
  3.6559060e-01
  3.4530956e-01
 -1.0320162e-01
 -1.8573930e+00
  1.4797959e+00
 -4.3265176e-01
 -4.0953609e-01
  1.0814553e+00
 -8.4767938e-01
 -6.7889720e-01
  1.1173121e+00
 -7.6897305e-01
  9.6376657e-01
 -1.2697694e+00
  4.4190356e-01
  3.2075169e+00
 -1.1184386e+00
 -2.3576312e+00
 -5.6331612e-02
  7.6548171e-01
 -2.2761500e+00
 -1.7931554e+00
  3.8257630e+00
  2.6534016e+00
  3.6095502e+00
 -1.5858923e+00
 -1.6395506e+00
 -1.6371131e+00
 -4.4034660e-02
 -1.2016901e+00
 -1.0873283e+00
  3.1226037e+00
  6.5804559e-01
  2.6571770e+00
 -4.0925436e+00
 -1.6221831e+00
  1.1789953e+00
  1.9613391e-01
 -6.5062195e-01
 -6.6821277e-01
  4.0578427e+00
 -6.5423495e-01
  1.0274513e+00
 -2.3074644e+00
 -1.7017787e+00
 -1.6018628e-01
  2.8073475e-01
  2.8582795e-02
 -1.3902764e+00
  1.1827320e+00
 -5.0173807e-01
 -1.0644891e+00
  6.2416289e-02
 -3.2698975e+00
  2.5753635e-01
 -1.4425400e+00
 -2.6312023e-01
  1.2588842e-01
  2.7221730e+00
 -2.9358244e-01
 -1.3026798e+00
  8.6993903e-01
  2.7335027e-01
 -1.9208798e+00
 -4.0695441e-01
  1.3540844e+00
 -6.4160651e-01
  9.6874857e-01
  2.3271654e-02
  9.5889717e-01
  4.9989098e-01
 -1.5505370e-02
 -2.1168892e+00
  1.0310736e+00
 -7.5416857e-01
 -3.1001572e-02
  1.8925965e-01
 -2.2301525e-01
  8.8327006e-03
 -1.7270358e+00
  6.2834942e-01
 -2.6971066e-01
 -1.7985144e+00
  2.1084079e-01
 -1.8372372e-01
  2.3585720e+00
 -8.2575470e-02
  2.5793087e-01
 -3.0541237e-02
 -1.2350872e+00
  1.0875741e+00
 -1.1593406e-01
 -6.6377938e-01
 -3.6580202e-01
  6.7265499e-01
 -2.3995699e-01
 -6.8848811e-02
  1.8733051e-01
 -3.7246990e-01
 -8.3470351e-01
 -9.5884377e-01
 -3.1429932e-01
 -6.5955824e-01
  9.3064803e-01
 -1.1858620e-01
  1.0758239e-01
  1.5935495e+00
 -3.6909068e+00
  3.6678058e-01
 -1.9018605e-01
 -9.4382763e-01
 -6.7105424e-01
  3.0383021e-01
 -9.2374712e-01
 -5.2371651e-01
  2.7913433e-01
 -2.2601372e-01
 -2.5816822e-01
  1.0113888e+00
 -1.5652111e+00
 -1.7427377e+00
 -7.9995656e-01
 -2.2548491e-01
 -1.3072509e-01
 -3.3740199e-01
 -1.1006496e+00
  1.0840310e+00
 -2.2792985e+00
  9.6498322e-01
  1.4008223e+00
  2.5000700e-01
  2.8434956e-01
 -9.6434540e-01
  2.9285431e-01
  4.1736972e-01
  2.5898695e-02
 -5.5869633e-01
  8.2804012e-01
 -1.2888930e+00
  1.8915033e-01
 -6.5526962e-01
  2.9519209e-01
 -8.5752964e-02
 -1.0878314e+00
 -4.1238540e-01
  9.3075740e-01
 -2.8856388e-01
 -1.3946153e+00
 -1.6566008e-01
  5.6023723e-01
 -5.8714563e-01
 -2.3242335e-01
 -1.4731433e+00
  1.5224451e+00
 -1.9344318e-01
  3.4665433e-01
 -3.5270255e+00
 -2.7671453e-01
  8.2546026e-01
 -1.4775032e+00
  5.1870221e-01
 -1.0129864e-01
  2.3015302e-01
 -2.0793962e-01
 -6.3530427e-01
  3.0461463e-01
 -1.2108206e-01
 -2.5056708e-01
 -1.0775448e-01
 -1.0844042e+00
 -3.5157105e-01
 -3.0917716e+00
  1.7433032e-02
  7.5091906e-02
 -6.4458072e-01
 -2.0816181e+00
  8.9788711e-01
 -4.7629422e-01
  9.3779457e-01
 -9.1521926e-02
 -8.8629484e-01
  4.9594909e-02
  3.9984372e-01
  3.5601877e-02
  1.9272892e-01
  1.8088493e+00
 -2.0060594e-01
 -1.4522928e-01
 -4.3256032e-01
  5.1102901e+00
  1.8825538e+00
  1.7341007e+00
 -7.8774893e-01
  9.1100320e-02
 -3.0368111e-01
 -7.5279999e-01
 -3.5213286e-01
  5.0937581e-01
  1.8772040e-01
 -2.5924230e-01
  6.9769844e-02
  1.5126762e+00
  1.9612126e+00
 -1.2036710e+00
 -2.7895844e-01
 -2.1541705e+00
  1.8177841e+00
  1.1007094e+00
 -1.1374561e+00
  5.0089210e-01
  2.3065823e-01
  2.0202980e+00
  9.1182548e-01
 -1.7587667e+00
 -1.1621206e-01
  1.2216384e+00
 -3.8621110e-01
  9.3262768e-01
 -1.6267784e-02
  3.5319233e-01
  9.8494226e-01
  1.2810488e+00
 -7.3518026e-01
  6.2473744e-01
  1.1411788e+00
  2.9176903e+00
  5.3537101e-01
  1.2689027e+00
 -1.0104704e+00
 -8.1786156e-01
 -2.8686088e-01
  6.6470069e-01
  1.0671481e+00
 -8.7566070e-02
 -4.7173563e-01
  5.2722856e-02
 -3.9561704e-02
 -1.0286134e+00
  3.1272033e-01
 -1.6512978e+00
 -1.1673619e-01
 -5.3883392e-01
  1.3711684e+00
  2.0932111e-01
 -5.3662978e-02
  2.7454069e-01
  6.7538184e-01
  8.1674650e-02
  1.4969867e+00
 -1.3953130e-01
  1.0035396e+00
  1.0092863e+00
 -6.3572907e-01
  1.1099069e+00
  3.7141734e-01
  1.1339834e+00
 -6.5244496e-01
 -4.7924331e-01
 -1.9855095e+00
 -8.3854455e-01
  1.4708754e-01
 -8.8439775e-01
  6.2915319e-01
 -7.4641365e-01
  2.7080297e-02
  5.3155929e-01
 -1.7633702e+00
 -2.0991961e-02
 -2.9652649e-01
 -7.7988493e-01
  1.5192555e-01
 -2.9948161e+00
  1.3621025e+00
 -1.2827878e-01
 -7.5299662e-01
 -2.3736815e+00
  1.4159676e-01
 -2.1252928e+00
  6.8950963e-01
 -1.0257200e+00
 -2.9940277e-01
 -5.5679667e-01
  1.5316647e-01
  2.3346740e-01
  9.2546952e-01
  1.5137854e+00
 -6.5542561e-01
  3.8345437e+00
  5.8686060e-01
 -1.6911042e+00
  5.9820592e-01
 -8.0155617e-01
 -2.9595584e-01
 -1.4703126e-01
 -1.0638735e+00
 -3.8403419e-01
 -1.1138662e+00
  7.6659465e-01
 -3.3459747e-01
  1.1747302e-01
  1.0642447e-01
 -7.0961708e-01
  1.8540777e-01
  4.3465871e-01
  2.5873646e-02
  1.5716326e-01
  1.3506901e-01
 -7.0136592e-02
 -5.9578657e-01
  2.6109364e+00
  1.2506155e+00
  5.5841792e-01
 -7.0246565e-01
  4.8369655e-01
 -1.0510290e+00
  1.3334033e-01
  1.3853432e-01
 -1.6624182e-03
 -8.1880373e-01
  5.6019294e-01
 -8.3101380e-01
  1.2627574e+00
  7.0095998e-01
  9.0387809e-01
 -1.3559575e-01
 -1.0054388e+00
 -1.5644368e+00
  1.0053740e-01
 -1.7041492e+00
 -3.8911110e-01
  1.0677886e+00
  1.8367270e+00
 -4.6262461e-01
  1.9087613e+00
  3.1840903e-01
  1.0276892e+00
  1.0282317e-01
 -1.0456738e+00
 -2.6250455e-01
 -4.5020759e-01
 -4.5225552e-01
 -5.6767732e-01
 -3.5290390e-01
  3.8968620e-01
 -3.8432786e-01
  4.2998660e-01
 -8.9805520e-01
  9.1764331e-01
  1.3486433e+00
  1.1046672e+00
 -1.0416657e+00
  2.7690685e-01
 -5.2090323e-01
  4.1317195e-01
  1.4665005e-01
 -9.9455297e-01
 -1.8610391e-01
 -3.8007832e-01
  2.4028170e-01
 -1.5896001e+00
  1.1162886e-01
  3.5323672e-02
  1.1691719e+00
 -5.5699313e-01
 -1.6288613e+00
  1.0241730e+00
 -5.9293824e-01
 -4.9952933e-01
 -9.0044045e-01
 -1.1057839e+00
 -4.0842229e-01
  1.0817951e+00
  4.7757733e-01
 -1.0342659e+00
 -5.8887368e-01
  3.9932618e-01
  2.2862732e+00
 -8.4187406e-01
 -4.0449625e-01
  1.3213718e+00
  3.8064986e-01
  1.3073528e+00
 -1.0953555e+00
  9.3932092e-01
  2.9748616e+00
 -4.9034595e-01
 -3.3230576e-01
  2.2814143e+00
  1.8647850e+00
  1.6179254e+00
 -7.1842313e-02
 -1.3116951e+00
  2.3266149e+00
 -8.3995330e-01
 -3.5614961e-01
 -2.4042187e+00
  6.7972726e-01
  1.1707433e+00
 -2.0687191e+00
 -1.1530298e+00
  1.5178447e+00
  4.9610160e-02
 -5.1648474e-01
  1.5393789e+00
 -1.4484297e+00
 -2.7724389e-02
 -6.3181621e-01
 -3.8200042e-01
 -6.0502768e-01
  4.1922235e-01
 -6.5219855e-01
  4.0999833e-01
 -9.3195492e-01
  4.2803913e-01
  5.7751340e-01
  6.8906027e-01
 -7.0725846e-01
  2.8934860e-01
  1.8118766e-01
 -9.7694701e-01
 -1.1893625e+00
  1.0267090e+00
  1.5693745e-01
 -5.7944649e-01
  5.4411155e-01
  4.1996390e-01
 -5.7343549e-01
  1.0320655e+00
 -5.8322763e-01
  1.8854792e+00
 -8.0333501e-02
  3.2835625e-02
 -2.6400743e+00
  2.8376707e-01
  3.2038212e-01
  6.1169636e-01
 -2.1334982e+00
  1.9999260e-01
  5.2945817e-01
 -7.3029530e-01
  1.4863898e+00
 -3.1231685e+00
 -1.8447010e-01
 -1.2310303e+00
 -5.5261636e-01
  9.0619302e-01
 -8.0650675e-01
 -1.2468823e+00
 -4.9105743e-01
 -2.1535878e+00
 -1.1697556e+00
  6.2051713e-01
  1.8170894e+00
 -1.0758357e-01
 -3.3904877e+00
  2.2481100e-01
 -9.7230554e-02
  4.2425537e-01
  8.3749998e-01
 -1.5994006e+00
 -1.1865386e+00
  4.7926348e-01
  3.3175310e-01
 -9.7088176e-01
 -6.7576432e-01
 -1.5839936e+00
  2.8759263e+00
  1.3965478e+00
 -7.6842040e-01
 -7.0000547e-01
  2.8336707e-01
  9.7069539e-02
  2.1585186e-01
  1.3106859e+00
  1.3731283e-01
 -2.3393409e-02
  2.2980306e-01
 -2.5833103e-01
 -3.6243880e+00
 -1.3500265e+00
  1.1679106e+00
  1.7460372e+00
 -1.6027831e-01
  1.2134166e+00
 -1.0110672e+00
  3.1284174e-01
 -2.8638169e-02
 -1.5972456e+00
  5.8983105e-01
 -4.8476186e-01
 -9.9890202e-01
 -1.7017393e+00
  3.9226701e+00
  2.6351097e-01
 -1.3294005e-01
 -4.8125482e-01
  2.4907146e+00
 -4.1389230e-01
 -1.8185742e-01
  1.1331927e+00
  7.4520820e-01
 -1.7461050e-01
 -7.6618737e-01
  7.1043722e-02
  1.8525946e+00
 -1.9162687e+00
  2.1247834e-01
  1.5546728e+00
 -8.7403744e-01
  5.9344959e-01
  2.2509168e-01
 -6.3046426e-01
 -3.8443494e-01
 -2.3595709e-01
  3.0278921e-01
 -1.5771027e+00
 -4.3769691e-02
  5.7738060e-01
 -6.2906796e-01
  4.4140539e-01
 -3.0064404e-01
 -2.5490448e-01
 -1.8119603e+00
  1.6875571e+00
 -2.0578947e+00
  4.5651689e-01
 -2.8331932e-01
 -7.2931856e-01
 -3.0213162e-01
  1.0378596e-01
 -3.8114971e-01
 -1.0188130e-01
 -2.8078899e-02
  8.5132277e-01
 -5.9088206e-01
 -2.0312271e-03
 -2.5104359e-01
  4.8715115e-01
 -6.7307788e-01
  9.8909217e-01
 -1.3487777e+00
  1.3410729e+00
  1.5432459e+00
 -1.0816903e+00
 -1.9503026e+00
 -4.6961802e-01
 -2.3474315e-01
 -8.7950580e-02
  2.4217217e+00
 -7.1604836e-01
  9.1591185e-01
  2.5161323e-01
 -1.0134152e-01
 -4.7924954e-01
  2.7040923e-01
 -7.2983116e-01
 -3.3537498e+00
 -3.7619624e-01
  1.6758129e-01
 -2.3656721e+00
  8.6304981e-01
 -1.1217357e+00
  1.6290394e+00
  2.7552867e-01
 -1.7366678e+00
 -7.7905232e-01
  7.1050137e-01
  1.6810161e-01
 -1.4228646e-01
 -7.0290160e-01
 -3.3178911e-01
 -3.8731116e-01
 -4.8431426e-01
 -3.4243354e-01
 -1.1729362e+00
 -6.4273924e-02
 -1.7388739e-02
  1.8846653e+00
 -2.9156148e-01
 -1.5063246e-01
 -8.5472941e-02
  1.7424734e+00
 -1.5167191e+00
  1.2843287e+00
 -9.1835719e-01
 -9.9813819e-01
  1.3567391e-01
 -8.6916274e-01
 -2.6935680e+00
 -6.6926742e-01
  7.4168247e-01
  3.1385326e-01
 -1.1026312e+00
  1.3064226e+00
 -1.5499071e+00
  4.6064726e-01
  1.2239872e+00
 -5.6826866e-01
  1.7443335e+00
  2.6440594e-01
 -4.4290525e-01
  2.3439857e-01
  6.7773509e-01
 -4.3338612e-01
  5.3087682e-01
 -1.6429774e+00
 -1.8501346e+00
  5.9432590e-01
  1.7883442e-01
 -5.6877933e-02
  2.0135174e+00
  1.4130909e+00
 -1.8683969e+00
  1.1255925e+00
  1.9194151e-01
  3.8327613e-01
  4.7666171e-01
 -6.2597543e-02
 -7.8084493e-01
  9.4041127e-01
 -1.0639457e+00
 -2.3042996e+00
 -1.7555451e+00
 -4.6556681e-01
  2.9466793e-02
 -2.3586407e+00
  6.0539901e-01
 -2.0217369e+00
  1.5478280e-01
 -7.1092814e-01
  1.4580525e-01
 -1.4441676e+00
  6.2504584e-01
 -1.8334166e+00
 -1.9178081e-02
  1.0911109e+00
  2.4392878e-01
  6.8784547e-01
  1.0784312e-01
 -1.5133593e+00
  8.3882326e-01
 -4.7304302e-01
 -4.5283893e-01
  1.7025256e+00
 -2.0539276e-02
 -1.2014800e+00
  7.8891551e-01
  2.3720801e-01
 -1.0097913e+00
  1.5141666e+00
 -1.5888610e-01
  6.7020878e-03
  1.1125470e+00
 -1.3918121e+00
  2.4194740e-01
  8.5643634e-02
 -2.9935119e-01
  2.9844499e-01
  7.1812642e-01
 -3.5404274e-01
 -1.1499189e+00
 -2.5339589e-01
 -8.7663007e-01
  1.1184222e+00
 -1.7028292e+00
 -1.8648170e-02
 -1.1662006e+00
  9.3959033e-02
 -2.1132452e+00
  2.2748365e-01
  3.5382569e-01
  3.5128054e-01
 -4.9475834e-02
 -3.9352503e-01
 -1.0580219e+00
  1.0392693e+00
  1.1597754e+00
  1.9479111e-01
 -9.7787458e-01
 -9.3605673e-01
 -2.4760169e-01
  7.3597789e-01
  1.8238113e+00
 -2.6616338e-01
  1.6834962e+00
  5.0421107e-01
 -2.6761556e+00
 -7.9075933e-02
 -6.3003719e-01
 -1.0054018e+00
  1.2049143e-01
  3.5080582e-01
 -1.6024958e+00
  7.8619584e-02
  1.1439367e-01
 -1.6891390e+00
 -5.2594692e-01
  9.3683642e-01
  2.0421550e-02
 -6.6363615e-01
  9.8189962e-01
  2.0661528e+00
 -6.5522337e-01
  8.1779301e-01
 -1.8855605e+00
  2.3853137e-01
  1.4891362e-01
  9.5088935e-01
  1.0380189e+00
 -1.7602405e-01
  3.8447231e-01
 -7.0110571e-01
  3.5902509e-01
  2.7368743e+00
  1.9009875e+00
 -1.2198446e-01
 -2.7405703e-01
 -1.0533262e+00
  2.5252421e+00
 -8.3500648e-01
 -3.3042690e-01
 -2.6284942e-01
  8.9474177e-01
  2.3764095e+00
 -3.1128490e-01
  2.1633928e+00
  9.6262312e-01
 -2.2003084e-02
 -6.2611306e-01
  3.0814716e-01
 -1.2694737e+00
 -1.5909202e+00
 -8.6565334e-01
 -2.9689714e-01
  1.4308646e-01
 -9.0810442e-01
 -8.6475706e-01
  4.6353391e-01
  2.5475407e-01
 -1.0169625e-01
  5.1042831e-01
  4.4013137e-01
 -1.1396480e+00
 -1.1295604e+00
 -2.9107442e-01
 -7.0701325e-01
 -2.5230842e+00
 -3.2524556e-01
  1.3593653e+00
 -9.6933585e-01
  1.8896238e+00
  4.1879055e-01
  1.0930604e+00
  1.9091037e-01
  1.2271674e+00
 -9.7354484e-01
  6.2524974e-01
 -8.3713859e-01
 -5.2517056e-01
 -4.5158452e-01
 -1.9825768e-01
  1.5067208e+00
  2.9341710e-01
  7.7473298e-02
  2.7959362e-01
  5.8157080e-01
 -2.0843452e-01
  6.8245065e-01
  9.3034589e-01
 -7.9540563e-01
 -1.9692947e-01
  6.8865800e-01
 -1.9034892e-01
 -1.0110607e+00
 -4.3890655e-01
  8.1597137e-01
  5.2648467e-01
  1.5057990e-01
  4.6411416e-01
  2.3053190e-01
 -9.8995566e-03
  1.8000318e+00
 -6.4661813e-01
 -5.0706136e-01
  7.7838397e-01
  1.3337220e+00
 -1.3514794e+00
  3.7931392e-01
 -1.3641462e+00
 -5.1080471e-01
 -8.2252169e-01
  4.1876718e-02
  9.7046280e-01
  2.8615096e-01
  5.7169956e-01
 -1.9977697e+00
 -1.6663257e+00
 -1.0894344e+00
 -1.5514942e+00
 -1.0046962e+00
  1.9126731e-01
  1.3802769e+00
 -1.3939308e-01
  1.7516848e+00
  5.9633106e-02
 -3.0826831e-01
 -7.2371048e-01
 -9.6491832e-01
 -1.6538348e+00
 -9.4231319e-01
 -1.7127049e+00
 -2.6767242e-01
  1.5284011e+00
  7.0435745e-01
  1.6455699e-02
  5.4434305e-01
  2.4490726e+00
  3.1297076e-01
 -1.1134900e+00
 -1.3739827e+00
 -5.6324266e-02
 -6.5876871e-02
 -2.2900903e-01
  1.2561907e+00
 -1.5449446e-01
  3.7550145e-01
  2.5722843e-01
  2.2666894e-01
  3.2738745e-01
  7.1879208e-01
 -1.1863903e+00
  2.0194163e+00
 -5.4410422e-01
 -4.6252343e-01
 -3.0901693e-02
  2.8792459e-01
  9.7417653e-01
 -1.5363576e+00
 -9.9210441e-01
  1.1730204e-01
  2.2932992e+00
  1.3744817e+00
 -3.3547711e-01
  1.0231000e-01
  1.1773057e-01
  5.0722289e-01
 -3.6982289e-01
  2.4102437e-01
  9.2895520e-01
 -1.2989806e+00
  8.1668782e-01
 -3.6746597e-01
  8.7979054e-01
 -6.6734707e-01
 -4.3766391e-01
 -5.1810831e-01
  1.1501623e+00
  1.2072895e+00
 -1.5622497e+00
  5.6648567e-02
  2.0378036e+00
  4.1728761e-02
 -2.7016029e-01
  2.8825221e+00
  2.1107090e-01
 -5.1444173e-01
 -2.4502921e+00
 -5.7973462e-01
 -6.6949725e-01
 -2.3163474e+00
  2.0598733e+00
 -9.7779351e-01
  2.0108700e-01
 -9.4887948e-01
  1.2818187e-01
 -1.2268816e+00
 -1.4002924e-01
 -8.0463696e-01
  1.7097185e+00
 -1.8326224e+00
 -1.2304165e+00
 -1.0157736e-01
  2.3679812e+00
  1.6139698e+00
 -2.0171227e+00
 -2.8404123e-01
  1.9750599e+00
 -4.2507324e-02
  1.6150968e-01
  3.6473259e-02
 -8.1636977e-01
  1.8472660e-01
  5.1270872e-01
  5.0409544e-01
  8.6867791e-01
 -3.5178944e-01
 -1.7596777e-01
 -1.8002458e-01
 -5.1789171e-01
 -2.5696045e-01
  2.8954390e-01
  9.0519637e-02
 -8.6036515e-01
 -8.5455871e-01
 -1.1825653e+00
  5.7685333e-01
 -1.5303419e+00
 -7.2300363e-01
 -3.2172031e+00
  2.2034431e-01
 -1.5629618e+00
 -2.4124013e-01
  1.9779418e-01
  9.9206173e-01
  4.4104415e-01
  2.2572774e-01
 -1.0777112e+00
  6.9128156e-01
  1.1029301e+00
  1.3191037e+00
  1.3175902e+00
 -6.8567961e-01
 -3.6843345e-01
 -1.4878865e-01
  2.4894437e-01
  4.4773614e-01
 -1.9655196e-01
  1.8934026e+00
 -1.4122598e+00
 -1.4448755e+00
  2.4925914e-01
  9.1722816e-01
  5.3294349e-01
 -2.5487605e-01
  1.0788932e-01
  1.3985008e+00
 -4.8641384e-01
  2.7138478e-01
  1.7656070e+00
  1.3945234e+00
  2.3558547e+00
 -3.8521880e-01
  7.4848557e-01
 -8.3607531e-01
  1.6143112e+00
  6.3089323e-01
 -3.3249623e-01
  6.2311047e-01
  5.7158101e-01
 -1.1912608e-01
 -3.4470290e-01
 -6.4835593e-02
  3.0007867e-02
  1.2514009e+00
 -1.8759707e-01
  1.2869166e+00
  1.1112770e+00
  8.2691926e-01
  1.3536453e+00
 -1.4937353e+00
 -7.8991258e-01
  4.3069378e-01
 -6.5275216e-01
 -1.6851797e+00
  3.9727774e+00
  1.2510724e+00
 -4.6786383e-01
  7.2198443e-02
 -1.1756396e-01
  1.7185026e-01
 -5.7795030e-01
  3.4062845e-01
 -1.5359396e+00
  3.2807419e-01
 -6.3226777e-01
  2.1286847e-02
 -1.0916814e-02
  1.8238705e-01
  5.0104094e-01
 -4.9116406e-01
  1.3153002e+00
  1.2020901e+00
 -1.5304152e+00
  6.3684446e-01
 -4.9387598e-01
  2.4036837e+00
 -1.3254068e+00
 -4.5282498e-01
  6.6529065e-01
  1.3330876e+00
  3.0273870e-03
  4.7800206e-02
  7.8542030e-01
 -9.7436225e-01
  1.2425030e+00
  7.7987498e-01
  3.4456927e-01
  7.6198471e-01
 -6.2667802e-02
  9.7300106e-01
  7.8927147e-01
  1.3915017e-01
 -1.3239975e+00
  5.7441777e-01
  5.0845033e-01
 -3.1238539e+00
 -1.5660872e+00
  5.6900126e-01
  4.9268103e-01
 -1.1369648e+00
  2.4575695e-01
 -7.0491666e-01
 -6.7079985e-01
  2.3557226e-01
  5.6027555e-01
  2.5690386e+00
 -1.0587321e-02
 -1.4695731e+00
  1.6228657e+00
 -1.8615870e+00
  1.6100825e+00
  1.2382466e+00
  8.2074517e-01
 -7.4164528e-01
 -4.8255391e+00
 -1.1009609e+00
 -1.3795165e+00
 -2.4240079e+00
 -2.2456481e+00
  2.7943918e-01
  2.1657787e-01
  8.4904552e-01
 -7.5057203e-01
  1.7673522e+00
 -1.4027186e-01
  3.0053864e+00
 -4.4863367e-01
  1.4388773e+00
 -1.8420600e+00
 -3.2108420e-01
  2.6883485e+00
 -1.1593696e+00
 -1.4446129e-01
 -2.3982329e+00
 -5.4079866e-01
  8.5763031e-01
  4.3159726e-01
 -1.2601037e-01
 -1.9375045e+00
 -8.7437147e-01
 -7.6799852e-01
 -2.7639264e-01
 -1.0059743e+00
  3.2586968e-01
  1.1799698e+00
 -2.5274712e-01
 -1.1199402e+00
  5.5918533e-01
  3.7667984e-01
  1.7407447e-02
  6.4249164e-01
  8.0639720e-03
 -3.4930551e-01
  8.2343447e-01
 -6.1979479e-01
 -4.2788169e-01
 -1.0985203e+00
  1.5279369e+00
  2.4089018e-01
 -2.6222128e-01
  4.2954922e-01
  2.6158703e-02
  1.3697189e+00
  1.0226294e-01
 -1.1287513e-01
  1.8573466e-01
  3.8202459e-01
  2.4044304e-01
  2.7659649e-01
 -1.8365288e+00
 -1.7824433e+00
  7.5728679e-01
  1.7812854e+00
  3.3874867e+00
 -2.9635301e-01
  5.7844961e-01
  9.9235916e-01
 -2.8345922e-01
  1.0630518e+00
  3.5987622e-01
 -6.7464018e-01
  9.4213970e-02
 -7.8994435e-01
  7.0857815e-03
 -1.0478342e+00
 -2.2602198e+00
  1.9824747e+00
  1.0467693e+00
 -1.5162349e-02
  8.3392835e-01
  7.9202719e-02
 -2.8557599e-01
  4.2123803e-01
 -5.3243071e-01
 -1.1891575e+00
  1.5334699e-01
 -5.8136177e-01
 -1.6277766e-01
 -2.5202152e-01
 -2.8111145e-01
  2.0900926e-01
  6.8574476e-01
 -1.0777267e+00
  8.5119265e-01
  4.9986970e-01
 -1.4909331e+00
  1.3187501e-01
  1.2040198e+00
 -1.1472441e+00
 -3.5349822e-01
  1.9373461e+00
  3.4160849e-01
  5.9151059e-01
 -8.7708277e-01
 -2.8089592e-01
 -1.9868828e+00
  8.6808586e-01
  8.1837755e-01
  1.6894709e-01
 -8.8097620e-01
 -5.4111701e-01
  4.7254729e+00
 -2.3376289e-01
  2.0565055e-02
  1.0321118e-01
 -3.7938595e-01
  1.2243847e+00
 -9.0694696e-01
 -1.3046551e-01
 -1.9239084e+00
  1.2045267e+00
  1.6127999e+00
  4.4475660e+00
  5.5192876e-01
  7.3824539e+00
  4.3278918e-01
  2.1522443e+00
  1.7880679e+00
 -1.9686824e-01
 -3.7277094e-01
  1.3301600e+00
  1.3278379e+00
 -2.5273147e-01
 -1.1931507e-01
 -3.0597246e-01
  1.1355884e+00
  7.9658020e-01
 -2.7161324e-01
 -8.4205501e-02
  2.3843305e+00
 -1.6773477e+00
 -5.2583027e-01
  5.6483045e-02
  5.8431536e-01
 -5.4592383e-01
 -4.3731111e-01
  6.2977409e-01
 -6.2825608e-01
  9.2660964e-01
  1.2687471e+00
  6.3442421e-01
 -5.9112668e-02
 -2.1352363e+00
 -2.6716518e+00
  1.5939635e-01
  4.6904263e-01
  4.3535626e-01
  9.7267902e-01
  8.5304868e-01
 -4.4594330e-01
  7.2049218e-01
 -1.7484007e+00
 -1.5981985e+00
 -8.0347562e-01
  6.1277241e-01
  9.9883002e-01
 -2.0494568e+00
 -3.4820524e-01
  1.4793535e+00
 -9.9227607e-01
  3.7825987e-01
  8.7860304e-01
  6.0056329e-01
  6.5352267e-01
 -7.5658524e-01
  6.3631082e-01
  1.4803886e+00
 -1.3818182e-02
  1.3153012e-01
 -2.7027130e-03
  7.0109499e-01
  1.7770357e+00
 -1.1264714e+00
 -6.6583985e-01
  7.1399224e-01
  2.2717589e-01
  3.9115861e-01
  1.1786065e+00
  2.8461161e+00
  1.8794662e-01
 -5.0933820e-01
  5.4135078e-01
  1.0974636e+00
 -2.3758444e-01
 -3.0133981e-01
 -1.5204357e+00
  9.2067438e-01
  6.2031858e-02
  3.2605124e-01
 -7.2021914e-01
  8.4300137e-01
  5.3152037e-01
  3.1224191e-02
 -1.1878059e+00
 -3.3899887e+00
  9.4283074e-01
  4.1040750e+00
  3.0449504e-01
  1.6385812e-01
 -2.4307790e+00
  1.6094705e+00
  1.1351928e-02
  3.3750758e-01
 -6.5031362e-01
  2.3528922e+00
  6.1015099e-01
  1.3534247e-02
  1.1208800e+00
  1.0523509e+00
 -1.4152505e+00
 -6.0294700e-01
 -5.1380992e-01
 -1.0502548e-01
  6.7916697e-01
  1.8748625e-01
  3.5055509e-01
  5.7589823e-01
 -5.2253023e-02
  7.1576893e-01
 -9.7360626e-02
 -1.4166644e+00
 -1.0705297e-01
  2.7518144e+00
  2.5625259e-02
 -2.4391185e-01
 -1.4237443e-01
  2.3281227e-01
 -6.4990908e-02
 -1.0561261e+00
  2.8584838e-01
 -1.6859428e+00
  1.5603532e+00
  4.2949554e-01
 -1.8185708e-01
  2.3934536e+00
 -5.4358505e-02
  3.6156037e-01
 -2.4202180e+00
  5.1978081e-01
 -2.9974988e-01
 -9.7197604e-01
  1.3660052e-01
  5.5917525e-01
 -1.1966626e-01
 -2.9844400e-01
 -7.6353103e-03
 -2.1816533e+00
  3.1403515e+00
  7.5357777e-01
 -4.5786625e-01
 -1.3498487e+00
  6.0821521e-01
 -3.6419137e+00
 -3.0534012e+00
 -8.8744366e-01
 -1.3438348e+00
 -1.2364964e-01
 -1.1992775e+00
 -3.2513728e+00
  2.6759517e+00
 -2.5844388e+00
 -3.2725242e-01
 -1.7394497e+00
 -9.9106455e-01
 -3.6912155e+00
  1.0631154e-01
  1.6492091e+00
 -1.5015812e-01
  6.8374150e-02
 -6.8281627e-01
 -1.1740197e-01
 -3.8625580e-01
  3.7702608e-01
 -5.1446629e-01
 -6.8247658e-01
 -9.1032529e-01
  1.8811578e+00
  1.0095845e-01
 -8.3325571e-01
 -1.5550507e+00
  4.5915061e-01
  8.2059634e-01
 -6.4963979e-01
  4.7387214e+00
 -1.2156382e-01
 -1.9271470e+00
 -1.1995482e+00
 -5.2005410e-02
  1.0512975e+00
  6.6903132e-01
  1.4687737e+00
  8.4955388e-01
  5.5573970e-01
 -4.7788739e-01
  3.8095832e-01
  5.7142746e-01
 -1.7293508e-01
 -2.3710265e+00
  2.6290768e-01
 -4.2785504e-01
 -1.7186558e+00
 -4.3450361e-01
  5.4387021e-01
  1.6699731e+00
  5.2304268e-01
 -4.4594783e-01
  1.9059041e-01
  8.8941026e-01
 -7.2898917e-02
 -1.5753505e-01
 -1.7277412e-01
 -5.3284533e-02
 -2.3033604e-01
 -2.1149778e+00
  1.2857274e+00
  3.0886251e-01
  1.9305094e-01
 -1.6463293e+00
  4.3859631e-01
  1.3556656e+00
 -1.3136904e+00
 -6.9903022e-01
  1.7701632e+00
  2.9785919e-01
  3.9048672e-02
  6.2658542e-01
 -1.7229359e+00
 -1.2578788e+00
 -1.8015926e+00
  4.0967381e-01
 -4.0823088e+00
 -1.6699505e+00
  3.2236296e-01
  1.2568990e+00
 -8.9353973e-01
  2.4564153e-01
  4.9407378e-01
  1.4489409e-01
  2.5051484e-01
 -1.1823237e+00
  1.6538601e+00
 -1.3403393e-02
  1.6372124e+00
  5.3570980e-01
 -6.4747140e-02
 -6.9543821e-01
 -2.2744417e-01
 -1.0846647e+00
 -6.4498889e-01
  2.8902286e-01
 -3.3785444e-01
  1.2593365e+00
  1.9446959e-01
  6.7547554e-01
  1.4698062e+00
  3.9714509e-01
 -1.1713118e-01
  1.0595412e+00
 -5.2365118e-01
  1.5896289e+00
  8.6615199e-01
  1.2169297e+00
  1.0338722e-01
 -1.7091651e-01
 -6.0412472e-01
  3.9711925e-01
 -5.0984520e-01
 -1.1566888e+00
 -1.3032296e-01
  1.2090768e+00
 -2.0983797e-02
 -1.6991006e+00
  4.1649505e-02
 -8.9827055e-01
 -7.5823501e-02
 -1.6308224e-01
  1.4226636e+00
 -3.6445546e-01
  2.4590502e+00
  1.1044960e+00
 -4.5732686e-01
  8.6014882e-02
 -4.9781287e-01
 -3.2928756e-01
 -3.8542515e-01
 -2.8265858e+00
 -2.7248004e-01
 -8.8571572e-01
 -1.0116978e+00
 -4.8933369e-01
  2.3381574e+00
  4.7565572e-02
 -9.0365991e-02
  1.2593467e+00
  2.2242902e-01
 -1.9352058e-01
 -4.1059908e-01
 -5.7611656e-01
  4.4326642e-01
 -2.9642081e-01
 -1.0183984e+00
  1.2278063e+00
 -5.1521492e-01
 -4.1913852e-01
 -1.5027125e+00
 -8.5324973e-01
  2.1241745e-02
 -1.7595371e+00
 -1.1321303e-01
 -2.1052170e+00
  2.8614491e-01
 -1.8954389e+00
  1.2773784e+00
 -4.1277330e-02
  1.0580168e+00
 -1.3601315e-01
 -1.7115837e+00
  4.5152999e-02
  2.9338298e+00
 -1.7452164e-02
  3.2816219e-01
 -6.1830297e-02
 -1.2515572e+00
  2.1580803e-01
 -1.2247625e-01
  3.8387361e-01
 -3.2478696e-01
  3.5878927e-01
  3.2177380e-01
 -1.0393168e-01
  1.8661486e-01
  2.2220332e-03
  3.3660221e-01
 -1.4609721e-01
 -8.3681118e-01
  1.4594345e-01
  2.0689043e-01
 -4.6077889e-01
 -4.1485123e-02
 -1.2745812e+00
 -1.0576080e+00
 -1.7617404e-01
 -5.3760076e-01
  3.3320200e-01
  2.7570355e-01
 -1.2248296e-01
  5.2607006e-01
  2.9463136e-01
 -8.3938289e-01
  1.1855732e-01
  1.4799796e+00
  8.4922886e-01
 -5.5910432e-01
 -5.1070106e-01
  1.3097250e+00
  4.4627160e-01
  1.1797884e+00
 -1.5925859e+00
 -1.3858752e+00
 -6.3250804e-01
  1.9158210e-01
 -2.3548231e+00
 -2.6147577e-01
  3.3027464e-01
 -1.7201658e-01
 -8.6635864e-01
  9.7544365e-02
 -1.2742627e+00
 -7.4150729e-01
 -1.2752615e+00
 -9.1448975e-01
 -8.3075291e-01
  1.9739658e-02
 -2.0962447e-01
 -5.5570149e-01
 -4.3617263e-02
  3.5284460e-02
  2.7146855e-01
 -6.1469632e-01
 -1.1289748e-01
  1.0847646e-01
  4.4173136e+00
  7.0273286e-01
  1.0707245e+00
 -4.7540101e-01
 -2.6092622e+00
  1.1004546e+00
  9.5900130e-01
 -3.1829596e-01
  1.3211704e+00
 -1.4406310e+00
  6.9891870e-01
  3.6247876e-01
  9.4056439e-01
 -1.0643076e+00
  1.2217023e+00
 -1.4732316e+00
  2.7563620e-01
 -4.6608350e-01
 -5.7344772e-02
 -5.4018539e-01
 -3.5865730e-01
 -5.7531488e-01
  6.7846483e-01
  7.8123617e-01
  1.3075964e+00
  1.3411623e+00
  7.8017527e-01
  1.0218960e+00
  3.1379943e+00
 -7.4591976e-01
 -1.2044489e+00
 -1.5668449e+00
  6.7748666e-01
 -4.5260020e-02
  6.5340358e-01
  4.0309399e-01
 -1.0323490e-01
 -1.2315750e+00
 -1.3792168e+00
 -1.6224492e-01
  9.2204022e-01
 -2.3962766e-01
 -2.1262231e-01
  8.1458157e-01
 -2.1473250e+00
 -8.1895836e-02
 -2.0949986e+00
 -1.5031559e+00
 -9.5641583e-02
  6.4868546e-01
  2.0122159e-01
 -6.2453020e-02
 -7.1861786e-01
  1.0657679e+00
  1.0503998e+00
  4.3476909e-01
  1.3506606e+00
  7.9960465e-01
  9.4792366e-01
 -9.2647034e-01
 -5.8209568e-01
 -1.3513218e+00
  3.6984426e-01
  1.1636513e-01
  1.5846217e-01
  7.8768510e-01
  4.3771118e-01
  7.7559900e-01
 -1.2248141e-01
 -7.7654046e-01
 -1.0747455e-01
  7.0339668e-01
  3.6092138e-01
 -1.3571627e-01
  1.8869403e-01
  9.8505092e-01
 -1.4506903e-01
 -2.2637857e-01
 -2.0186608e+00
 -8.6524665e-01
 -4.9379669e-02
  8.8619000e-01
  1.6862199e-01
  3.9090481e-02
  2.6893351e+00
  2.4493566e-01
 -4.9652237e-02
 -1.1462624e-01
  2.1272571e-01
  1.0487155e+00
  1.1266240e+00
  3.9494880e-02
 -5.8839196e-01
  3.7440751e+00
 -4.4540769e-01
  4.1362166e-02
 -6.2463641e-01
 -6.4907092e-01
 -7.0383042e-01
  5.9643364e-01
 -3.3256856e-01
  5.6595045e-01
 -7.6368535e-01
  3.2368600e-01
 -6.2158233e-01
 -3.8316184e-01
  6.3311094e-01
 -1.3766624e-01
  9.9949294e-01
  7.4479133e-01
 -1.5544721e-01
 -1.4808699e+00
  3.8965014e-01
  1.3196602e-01
  4.3076199e-01
  1.3571067e+00
  9.3089503e-01
 -8.1915671e-01
  1.6193786e-01
  3.2390761e-01
  1.3562176e-01
 -5.3324509e-01
 -2.1893723e-01
  2.4083927e+00
 -1.6637061e+00
 -2.0492768e+00
 -9.1425598e-01
  8.6712795e-01
 -3.4097296e-01
  3.7539858e-01
 -9.5822269e-01
 -2.5935304e-01
 -5.6560200e-01
  1.1867164e+00
 -2.5331885e-01
  5.2699894e-01
 -2.1147246e+00
  5.4809046e-01
  2.4595046e+00
 -2.6401734e+00
 -1.3099005e+00
  3.2893273e-01
  1.4110594e+00
  6.8522495e-01
 -1.1900421e+00
  1.2608235e-01
  8.1863666e-01
 -1.2217460e+00
 -1.4745084e+00
  1.1838226e+00
  4.6964404e-01
 -9.1189396e-01
 -4.0715152e-01
 -2.0830088e+00
 -4.9762648e-01
 -3.1088659e-01
 -7.8917682e-01
 -1.0743589e+00
  8.4512174e-01
 -3.0454332e-01
 -1.5562853e-01
 -4.3095183e-01
  8.4947920e-01
 -2.1833754e+00
  1.4065070e+00
  1.2255433e+00
 -9.7376518e-03
  7.1041536e-01
 -1.8020630e+00
 -1.4825470e+00
  7.3136824e-01
 -1.5572168e-02
  3.1939757e+00
 -2.0780137e+00
 -2.4007170e-01
 -9.1255409e-01
  8.9345664e-02
 -1.1157851e+00
  5.2032304e-01
  5.9436429e-01
 -9.3956739e-01
 -1.9758540e-01
 -4.4604737e-01
  2.4787309e+00
  1.0179291e+00
  3.3409908e-01
  1.9761944e-01
 -8.8648474e-01
 -1.8907420e-01
  1.6392086e-01
 -1.0027548e+00
 -2.6136443e-01
  9.6239187e-02
  9.3539441e-01
 -6.3145137e-01
 -1.1097702e-01
  5.9865510e-01
 -1.1960267e+00
 -1.6322612e+00
  9.5325875e-01
 -3.3920604e-01
 -3.3197850e-01
  9.2554218e-01
 -3.1330609e-01
  8.2867992e-01
  7.1243334e-01
 -2.5870254e+00
  4.4455194e+00
 -1.9011254e+00
  9.8580265e-01
  3.6469457e-01
  5.0743055e-01
  5.2718860e-01
 -3.2787087e+00
  4.5106411e-01
  1.5135107e+00
 -2.0868275e+00
 -2.6707715e-01
 -1.5978190e-01
 -4.5373541e-01
  9.3940818e-01
  2.2094916e-01
  1.2026511e-02
 -2.6030111e-01
  2.1236668e+00
 -3.3680091e+00
  7.0560753e-01
  9.1109657e-01
  4.7745809e-01
 -2.2950198e-01
 -1.9807659e+00
  9.7043312e-01
  3.4879513e+00
  1.4143157e+00
  5.9004918e-02
 -1.7507439e+00
  1.1922207e+00
 -1.1747000e+00
  1.9948574e+00
 -1.5915165e+00
  1.8229486e+00
  1.1926613e+00
 -2.8122154e-01
  5.9111726e-01
  3.3284831e+00
 -6.3328952e-02
  1.1257620e-01
 -4.0962639e-01
 -2.0660777e-01
 -5.1044828e-01
 -1.8300059e+00
 -9.3547344e-01
 -3.9414387e-02
 -1.1312773e-02
  1.2822318e+00
 -1.1862288e+00
 -9.6858770e-01
  9.0780342e-01
 -1.5213457e-01
  4.2141119e-01
 -2.5188476e-01
  1.6059865e+00
  1.9790958e-01
  8.1871331e-01
  6.7941588e-01
  1.4519670e+00
 -8.3114341e-02
 -6.9706589e-01
  1.4093082e+00
  5.6205112e-01
  1.6660037e+00
  6.1049020e-01
  1.3036402e+00
  8.8403499e-01
  2.1585311e-01
 -1.4649612e-01
  5.4295775e-02
 -1.1352309e+00
 -1.9686254e+00
  3.1145778e-01
 -3.5632902e-01
 -1.2931080e+00
 -1.0868407e+00
 -3.3810246e-01
  1.9205954e+00
  9.8912790e-02
  1.8428883e-01
  1.0400076e+00
 -8.6160016e-01
  1.6234830e-01
  8.3136815e-01
 -2.5963223e-01
 -1.6012142e+00
  3.6740448e+00
 -1.3068688e+00
  2.0180890e-01
 -8.1924075e-01
  1.2036871e+00
  1.1412165e+00
  5.9768665e-01
  4.7200289e-01
 -7.3324889e-04
  1.7081155e+00
 -5.4280704e-01
 -7.7331328e-01
 -1.3437195e-01
 -9.0799809e-02
  9.5513952e-01
 -3.0186981e-01
 -5.4319000e-01
 -9.3853402e-01
  3.1730136e-01
 -1.1869368e-01
  7.0104390e-01
 -5.9638150e-02
 -4.7664261e-01
 -1.2682098e+00
  5.6832886e-01
 -2.6254609e-01
 -4.8276734e-01
  1.5528681e+00
 -1.0492576e+00
  1.6635861e+00
 -7.1343161e-02
 -1.2810380e+00
 -3.4776863e-01
 -2.8255286e+00
 -5.7744050e-01
 -1.3661551e+00
  1.6182125e-01
 -2.1190701e+00
 -1.1751761e+00
  2.0630405e+00
  2.5385599e+00
 -1.1154808e+00
 -2.2891729e+00
 -1.5528458e+00
  7.5880486e-01
  4.9835891e-01
 -1.7933600e+00
 -5.3814948e-01
  2.7340412e-01
 -3.5258624e-01
 -2.9635823e+00
 -1.7049685e-01
  1.8036999e+00
  1.7676680e+00
 -3.6118209e-02
 -3.7589025e-01
 -1.0095744e+00
  1.9748776e+00
  1.5472318e+00
  3.4521371e-01
 -4.5877683e-01
  6.5038884e-01
 -1.6931078e+00
  1.8991172e-01
  1.4936986e+00
  3.8702968e-01
 -9.2282557e-01
  2.7768636e+00
 -1.8109916e+00
 -7.7621305e-01
 -1.1523256e+00
 -2.1205583e+00
  1.5287165e-01
  6.0644448e-03
  1.2794712e-01
  3.1622151e-01
  8.1453729e-01
 -3.6185893e-01
 -8.6838949e-01
 -1.7725573e-01
 -1.0501242e+00
 -1.6344123e+00
  1.1789360e+00
  4.9966571e-01
  1.8098094e+00
 -1.8808190e-03
 -1.4270760e+00
  7.5510943e-01
  3.7262696e-01
 -6.1564434e-01
  2.1478219e+00
  2.4650209e-01
  2.9047482e+00
  7.1886176e-01
 -3.4357540e-02
 -1.0310448e-01
  4.9489903e-01
  5.6608516e-01
  1.1812289e+00
  3.6268480e-02
 -2.0859468e+00
 -2.9091964e+00
  2.9758099e-01
 -2.5272521e-01
 -2.4509199e+00
  1.4291215e+00
 -1.9892360e+00
 -1.0984274e+00
 -2.6127467e+00
  5.4939371e-01
 -1.6180362e+00
  9.7104400e-01
  1.0479524e+00
  1.0105824e+00
  1.3658620e+00
  2.1340840e+00
  1.7651023e-01
  3.1295300e-01
 -1.4230433e+00
 -1.4423141e-01
 -1.6970746e-02
 -1.2397290e+00
  1.7012688e+00
  1.0572779e+00
 -1.3423148e-01
  1.6302898e+00
  2.6418355e+00
 -1.4689724e+00
  1.1742493e+00
 -1.4226255e+00
 -8.5465431e-01
 -6.0130417e-01
 -1.2878270e+00
 -1.8132434e+00
 -1.1225927e+00
 -1.5919080e+00
 -5.1734543e-01
  2.8179488e+00
  2.6268961e+00
  1.3852416e+00
  1.5800453e+00
 -2.1851969e-01
  3.6046374e-01
  2.3734827e+00
 -1.3827068e-01
  3.5112143e-02
 -1.6930941e-01
  8.1430003e-02
  8.4792429e-01
  2.4045733e-01
 -2.1533666e+00
  1.4919370e-01
 -2.9006988e-01
  2.8145158e-01
  6.1583805e-01
  2.5506558e+00
  2.8780246e-01
  1.7605714e+00
 -1.6875440e-01
  4.9875700e-01
 -3.3663068e-02
  1.3679924e+00
  4.2726722e+00
 -8.9677610e-02
  1.5437454e-01
  3.4132966e-01
 -7.0884921e-02
  2.1182363e-01
  4.3578291e-01
 -1.7494404e-01
 -1.8029572e-02
 -8.1787002e-01
  3.0808929e-01
  1.6802607e-01
  4.5484062e-02
 -2.7629144e-02
  7.8407699e-01
 -4.9420914e-01
 -1.3862963e+00
  1.4093392e-01
 -1.9247243e+00
  1.3086475e-01
 -1.1422653e+00
 -8.2191086e-01
  4.1184060e-02
  3.1832072e-01
  3.7287384e-02
 -6.0827976e-01
  3.6132365e-01
  7.6413494e-01
  5.1783688e-02
 -1.6270596e-01
  1.4088799e+02
  1.8534529e+00
 -2.9684606e+00
 -1.0736380e+00
 -8.9665776e-01
 -1.8148926e+00
  3.7242699e-01
  2.5396264e-01
 -1.7828890e+00
  1.8033016e-01
 -1.3112351e+00
  9.3315411e-01
  2.0944262e+00
  1.0015628e-01
  3.4227318e-01
 -4.2915630e-01
 -8.6478567e-01
  9.9303478e-01
 -9.1940898e-01
  3.6348242e-01
 -4.6160376e-01
 -5.0381523e-01
 -2.5603421e+00
  8.8399541e-01
 -1.5770838e+00
 -4.8854938e-01
 -1.3554407e+00
 -1.2407838e+00
  2.5894099e-01
  2.8366742e+00
 -1.4169637e+00
 -7.9945409e-01
 -3.0727828e+00
  5.6499267e-01
 -8.6644882e-01
  9.3098658e-01
  2.2792789e-01
  1.7713192e-01
 -1.7047822e+00
 -3.4805354e-01
  2.0451978e-01
  1.0197972e+00
 -1.3765668e+00
 -4.2488413e+00
 -1.1013826e-01
  2.7561450e+00
  1.5529682e-01
  1.4919344e+00
 -8.1882501e-01
  1.1517899e+00
  1.5762461e+00
  4.0316715e+00
  1.8239254e-01
 -4.1068789e-01
  2.6785192e+00
 -2.0791590e+00
 -3.8733268e+00
 -2.9768112e-01
 -6.6499299e-01
 -1.2893541e-01
 -1.1327840e+00
 -7.5449425e-01
 -1.8873985e+00
 -2.2786310e+00
 -5.7028168e-01
 -1.9622372e+00
  1.3908657e-01
  1.1756571e-01
  9.8877609e-01
 -5.8247226e-01
  1.7064863e+00
  8.1950122e-01
 -1.0041250e+00
 -1.7043910e+00
  1.7991391e-01
  5.8919209e-01
 -2.4782579e+00
  4.1113558e-01
 -3.3716631e-01
  8.1047553e-01
  1.3091220e-01
  7.7763832e-01
 -7.1171969e-01
 -1.5217209e-01
  8.9923733e-01
  1.4338063e+00
  2.4869600e-01
  1.2793692e+00
 -2.8375964e+00
 -6.9705647e-01
  5.9025645e-01
  1.2720919e-01
 -4.2666163e+00
  2.6425695e+00
  9.3951303e-01
  1.3141978e+00
 -2.4172480e+00
 -7.7900290e-01
 -1.4224310e+00
  1.1835281e-01
  1.5068344e+00
  1.3038509e+00
 -9.6020448e-01
  1.8376727e+00
  5.8844250e-01
  2.6082560e-01
 -2.4147243e+00
 -7.7217162e-01
  8.9272237e-01
  4.4988492e-01
 -6.3165373e-01
  3.6076818e+00
  7.5801706e-01
  2.7160263e+00
 -2.4097165e-01
 -2.9549010e+00
  2.6962769e-01
  2.0658123e+00
 -4.6183646e-01
 -1.7485726e+00
  1.2370808e-01
  1.1850022e-01
 -5.7690871e-01
 -1.4829930e+00
 -7.3197722e-01
 -6.8387020e-01
  2.8398365e-01
  2.0925546e+00
 -8.7599880e-01
 -2.4286294e-01
 -1.9012390e+00
  2.7454510e-01
  9.1919810e-01
  3.6894718e-01
  2.9241872e+00
  1.4744362e+00
 -1.6984218e+00
 -1.1946002e+00
 -4.5186949e+00
 -8.4883481e-01
  1.9626526e+00
  1.0072004e+00
 -9.2329520e-01
 -3.0752826e-01
  1.2459600e+00
  2.3185730e+00
  8.5064423e-01
  6.6462684e-01
 -2.3057940e+00
  3.2220204e+00
  3.3289630e+00
 -1.5813599e+00
  1.7609499e+00
  2.8417058e+00
  7.9574507e-01
  2.0101829e+00
 -7.6951241e-01
 -1.1336986e+00
  2.8462789e+00
  4.8286900e-01
 -2.6386857e+00
 -1.0672473e+00
 -1.8678154e+00
  1.0846676e+00
 -3.1592810e-01
 -1.5545064e+00
 -3.5572693e-01
 -1.1643998e-01
 -3.7266026e+00
 -2.8706219e+00
  1.3172004e+00
  3.1291111e+00
 -2.8146403e+00
 -2.1893826e+00
  2.2817153e-01
 -6.6703272e-01
  1.3478149e-01
 -1.7300732e+00
 -1.0954735e+00
  6.6117358e-01
  9.6664512e-01
 -1.0283034e+00
 -6.8044430e-01
  1.5081834e+00
 -2.9904488e-01
  3.7305278e-01
 -1.3302209e+00
  1.2419637e+00
 -6.3830245e-01
  1.1013895e+00
  9.3208420e-01
 -6.4599770e-01
 -2.8810361e-01
  5.6806862e-01
  1.0618170e-01
 -1.2436255e+00
 -5.0730121e-01
  3.0734101e-01
  2.1600182e+00
  3.4213677e-01
  3.6348045e-01
  1.6044381e-01
  3.1667227e-01
 -2.2858005e+00
  3.1448942e-01
  8.4864205e-01
 -3.8557003e+00
 -4.8095524e-01
  2.8445271e-01
 -3.6003146e-01
  2.5306156e-01
 -4.1152847e-01
  2.8172228e-01
 -3.5846454e-01
  3.2084799e+00
  3.6708629e+00
  6.2018764e-01
 -8.8310003e-01
  1.8291173e+00
  3.9599541e-01
 -1.8891717e+00
  4.6740115e-01
 -1.0579733e+00
  3.5323496e+00
  2.0053643e-01
 -9.1850245e-01
 -5.7846808e-01
  1.5661103e+00
  1.2703282e+00
  1.5716664e+00
 -1.7172111e+00
  1.0358132e+00
 -2.4321020e+00
  2.4305294e+00
 -2.8730216e+00
 -7.1958554e-01
 -1.4097542e+00
 -9.6311814e-01
  9.7136217e-01
  4.6152604e-01
 -2.7194743e+00
 -8.4789544e-01
  2.8020749e+00
 -5.9548050e-01
 -1.5468844e+00
 -1.6910988e+00
 -3.4883040e-01
  4.9016190e-01
 -8.9256525e-01
  9.6408904e-01
  1.5532699e+00
  2.6425197e+00
 -2.0384421e+00
 -1.7874244e-01
  1.6847070e+00
  1.3271792e+00
 -3.3897824e+00
  1.2028424e+00
 -1.9920534e-01
 -1.3348316e-01
  9.6815670e-01
 -1.8884610e+00
  1.4888111e-01
 -1.8567982e+00
  1.4464117e+00
 -1.0988522e+00
 -7.4709249e+00
  3.8932908e+00
 -4.4783192e+00
  1.7764711e+00
 -4.3881580e-01
  4.1669102e+00
 -3.5130781e-01
  6.1496454e-01
  1.0700136e+00
 -9.2596132e-01
  5.5914319e-01
  3.6610203e+00
  2.5076702e+00
 -9.1130549e-01
 -9.2434901e-01
 -1.0472909e+00
 -5.4230726e-01
  1.1424198e-01
 -9.2729342e-01
 -3.7012887e-01
  1.4207852e+00
 -2.3580036e-01
 -7.5975287e-01
  1.8067847e+00
  1.2258532e+00
 -8.6727148e-01
  1.6120683e+00
 -1.1193509e+00
  1.6427720e-01
 -1.2737836e+00
 -5.4906201e-01
 -8.9737862e-01
 -1.3535000e+00
  3.9263311e-01
 -2.0838100e-01
 -1.8550742e+00
  1.3647083e+00
 -2.0764613e-01
 -3.1939912e+00
 -3.8279516e-01
 -3.9562151e-01
 -3.8564718e-01
  5.3207713e-01
 -8.6011833e-01
  7.9317266e-01
  1.3208817e+00
  3.6362016e-01
 -6.5272605e-01
 -5.7700133e-01
  1.1248714e-01
  1.9552569e+00
 -1.4077891e+00
  1.3898121e+00
 -5.1941490e-01
  2.8684578e+00
 -5.0802881e-01
 -1.5380155e+00
 -1.5822825e+00
  5.2126008e-01
  6.0258007e-01
  1.1372066e+00
  1.5516585e+00
 -2.2442245e+00
 -3.6249738e+00
  1.1320711e+00
  1.0124024e+00
 -2.9833761e-01
 -3.2025392e+00
  1.8031080e+00
  2.6953547e+00
  5.6843412e-01
 -7.8317797e-01
  3.9632562e-01
  1.4584844e+00
 -9.4343817e-01
  6.5916437e-01
 -4.0186751e-01
  3.9080206e-01
 -1.1719152e+00
  1.6142501e+00
 -1.9012794e+00
  1.0586414e-01
 -9.4336802e-01
  7.0176661e-01
  4.4671592e-01
 -2.2342035e-01
 -7.4259144e-01
  1.6393930e-01
  9.3234617e-01
 -1.2777927e+00
 -2.1792934e+00
 -3.6598125e-01
  3.4898692e-01
 -7.2249132e-01
 -1.7097646e+00
 -7.8967589e-01
  1.8983504e-01
 -1.0082119e-01
  6.2413245e-01
  1.6324722e+00
 -1.1369468e-01
 -1.2464166e+00
  3.1053537e-01
 -9.7388518e-01
 -1.3266414e-01
 -2.7998617e-01
 -1.5687367e+00
  2.5136334e-01
 -2.8063555e+00
  1.3871706e+00
 -2.6714323e+00
  1.8677337e-01
  3.3487871e+00
  3.2871606e+00
  1.6558633e+00
  6.7080319e-01
  3.8461704e+00
  1.4060432e+00
 -1.5352870e+00
  1.1954275e-01
  1.8208923e+00
  9.1052890e-01
 -1.6392901e+00
 -2.0511234e-01
 -1.1006762e+00
 -5.8428001e-01
 -7.7638304e-01
 -2.6384827e-01
 -5.7493371e-01
  1.3081931e-01
  4.6596578e-01
  5.6934375e-01
  1.6577721e+00
  7.1607798e-01
 -2.6525950e-01
 -1.8748267e+00
  3.7049469e-01
  2.7609646e+00
 -1.6079090e+00
 -1.0129689e+00
 -2.8260891e+00
 -1.4705665e+00
  1.2087651e+00
 -1.2956856e-01
 -3.3913655e+00
 -2.9834344e+00
  3.8280487e-01
  2.0650491e-01
 -4.7308040e-01
  1.1403359e-01
 -1.4634831e+00
  3.3926845e-01
  2.7632329e+00
  2.2216618e+00
 -1.1555401e+00
 -1.2766761e-01
  2.4205425e+00
  1.5198359e+00
  3.1149638e-01
 -2.0698643e-01
  4.5851472e-01
 -1.0261778e-01
  4.2922226e-01
 -2.9923040e-01
 -2.8254837e-01
 -3.1422374e-01
  1.4944609e-01
 -5.4129440e-01
 -5.0158560e-01
  9.7753197e-01
 -2.8032210e-01
 -1.3539618e+00
 -1.1254051e+00
  1.9626329e+00
 -3.1843479e+00
 -1.6872901e+00
  2.6183276e+00
 -4.3602994e-01
  1.3065867e+00
  2.0113838e-01
  1.9074574e+00
 -1.0096011e+00
  1.0929662e+00
  1.6257272e+00
  1.2512499e+00
  1.4419192e+00
 -2.0251584e+00
 -3.5448375e-01
  2.1546237e+00
  8.5597467e-01
 -6.2764114e-01
 -1.5291795e-01
 -4.4055492e-01
  7.8055817e-01
 -2.4875057e+00
 -1.7346933e-01
 -2.7498010e-01
  4.8928598e-01
 -2.8408234e+00
  2.8671566e-01
 -1.3993323e+00
  4.3460041e-01
 -1.6373878e+00
  2.0484457e+00
  4.6277645e-01
  1.5539986e+00
 -8.8866377e-01
 -3.0568259e+00
  1.2494777e+00
  3.7161881e-01
  1.3319980e+00
  1.9905865e-01
  5.4825002e-01
  1.3103484e+00
  2.0877130e+00
  1.9099417e+00
  1.0944393e+00
 -1.4937564e+00
  1.4856859e+00
 -3.0948669e-01
 -1.8110425e+00
 -3.7174240e-01
 -5.6906719e+00
 -2.0281441e+00
  5.0886422e-01
 -2.1906900e+00
 -4.9244913e-01
 -3.2784657e+00
  1.1855952e-01
 -3.8136092e-01
  1.0016645e+00
 -1.7833654e+00
  1.8662256e-01
 -4.1774333e-01
  5.9509218e-01
 -9.4139093e-01
 -6.2764716e-01
  9.9765205e-01
 -1.8533827e+00
  1.7922211e+00
 -3.3838299e-01
 -1.3349575e-01
 -3.6331391e-01
 -1.5313561e-01
  3.8658338e+00
 -3.1288002e+00
 -5.0645155e-01
 -4.8986322e-01
 -1.9185377e+00
 -3.0406215e+00
 -2.1721458e+00
 -3.9658403e-01
 -1.6013824e+00
  7.1979117e-01
  1.7261603e+00
  1.9294019e-01
  2.3901609e-01
 -6.0297835e-01
  3.1251261e-01
 -2.7927095e-01
  5.0369072e-01
  1.3065135e-01
  8.5195249e-01
  1.4265634e-01
 -1.1172080e+00
 -5.2200496e-01
  1.7269856e-01
  1.9532695e-01
 -3.7965918e-01
  1.0664889e+00
  8.0044383e-01
  1.1780930e-01
  5.3235906e-01
  3.7440512e-01
  3.5416651e-01
 -2.7033734e+00
  2.4160144e-01
  6.7197031e-01
  2.9874507e-01
 -1.9157072e+00
 -9.3092030e-01
  1.9233916e+00
 -2.3433417e-01
 -1.1289513e-01
  7.7289569e-01
  9.0606737e-01
 -7.7938890e-01
  2.5120904e+00
  1.6501576e+00
 -7.0591807e-01
  1.9213349e+00
  1.7600740e+00
 -2.5265155e+00
 -8.7608010e-01
 -8.8312083e-01
 -2.0025469e-01
  1.5924391e+00
  8.7477803e-01
 -2.8274646e-01
 -4.9515429e-01
 -1.9406700e-01
 -1.3735387e-01
  1.3562272e-01
  1.6000225e-01
 -1.8437606e-01
 -1.7457790e+00
  1.2384822e+00
  4.0634221e-01
 -1.5882857e+00
 -1.9870895e+00
 -5.7717568e-01
 -9.7967851e-01
 -3.1054434e-01
 -1.9233350e-01
  4.1033375e-01
 -1.2676504e+00
 -1.4068387e+00
 -1.1091824e+00
  7.2298956e-01
  1.1037632e-01
 -1.8000100e+00
 -6.3755572e-01
 -1.0957893e+00
  1.0953368e-01
  3.4300489e+00
  1.9125612e+00
 -2.1741397e+00
  9.3760884e-01
  2.6280012e+00
  3.5505300e+00
 -7.5354791e-01
  7.9415083e-01
  2.3425367e+00
  2.5954714e+00
  2.2876129e+00
  6.3728255e-01
 -2.0017540e+00
 -1.2399987e+00
  5.3313303e-01
  4.0466586e-01
 -3.2078192e+00
 -2.4704814e+00
 -1.0575743e+00
  1.6054954e-01
 -2.7009516e+00
 -1.6063710e+00
 -1.1517967e+00
 -1.4656399e+00
  9.8995411e-01
 -2.4910766e-01
  1.7353078e+00
 -1.4609934e-01
 -2.3790789e+00
  1.7657900e-01
  2.4460149e+00
  4.1744709e-01
  2.2421954e+00
 -2.3611448e+00
  4.7335336e-01
 -1.6536487e+00
  1.8830026e+00
 -7.2149509e-01
  1.3822579e+00
 -1.5168153e+00
  1.2742666e+00
  2.8181773e-01
  9.4008088e-01
 -6.6656280e-01
 -3.0305331e+00
  4.6795994e-01
 -1.8411958e-01
  1.1957964e+00
 -4.4197518e-01
 -5.8958513e-01
 -6.7037618e-01
  1.2669258e+00
  1.2495252e+00
  3.7344366e-01
 -5.0656229e-01
  1.1728110e+00
  2.2312515e+00
  7.0313293e-01
  1.1041579e-01
  3.6473759e-03
  3.6473759e-03
  3.6473759e-03
  3.6473759e-03
  3.6473759e-03
  3.6473759e-03
  3.6473759e-03
  3.6473759e-03
  3.6473759e-03
  5.1219426e-03
  5.1219426e-03
  5.1219426e-03
  5.1219426e-03
  5.1219426e-03
  5.1219426e-03
  5.1219426e-03
  5.1219426e-03
  5.1219426e-03
  3.5099867e-03
  3.5099867e-03
  3.5099867e-03
  3.5099867e-03
  3.5099867e-03
  3.5099867e-03
  3.5099867e-03
  3.5099867e-03
  3.5099867e-03
  2.3140258e-03
  2.3140258e-03
  2.3140258e-03
  2.3140258e-03
  2.3140258e-03
  2.3140258e-03
  2.3140258e-03
  2.3140258e-03
  2.3140258e-03
  1.8693174e-03
  1.8693174e-03
  1.8693174e-03
  1.8693174e-03
  1.8693174e-03
  1.8693174e-03
  1.8693174e-03
  1.8693174e-03
  1.8693174e-03
  7.3449127e-04
  7.3449127e-04
  7.3449127e-04
  7.3449127e-04
  7.3449127e-04
  7.3449127e-04
  7.3449127e-04
  7.3449127e-04
  7.3449127e-04
  5.6199420e-05
  5.6199420e-05
  5.6199420e-05
  5.6199420e-05
  5.6199420e-05
  5.6199420e-05
  5.6199420e-05
  5.6199420e-05
  5.6199420e-05
