nep4 1 Si 
cutoff 5 5 30 30
n_max 4 4
basis_size 12 12
l_max 4 2 0
ANN 30 0
 -1.2122786e+00
 -1.0406666e+00
  7.5775343e-01
 -7.6596379e-01
  2.8825551e-01
  3.3441177e-01
  1.2089777e-02
  2.9166895e-01
 -1.6559058e-01
 -3.8218534e-01
  4.6691453e-01
  6.7859387e-04
  7.5021303e-01
  8.5880132e-03
 -6.3057043e-02
  6.8153179e-01
 -1.1206425e+00
  3.0025470e-01
  3.5494822e-01
 -2.2232665e-01
 -1.3476652e-01
  7.0418733e-01
  1.8762375e-01
 -7.8399748e-01
 -2.8221336e-01
 -1.5740860e-01
 -2.5516849e-03
 -1.7020786e-03
 -2.7433592e-03
  7.7289797e-02
 -2.5254158e-05
 -1.2982699e-04
  1.5800205e-04
  1.2721251e-05
 -8.5706444e-05
  7.8464756e-05
  3.9232614e-06
 -4.0998926e-05
  3.9394567e-05
 -1.6514917e-06
  8.2795494e-05
  8.8462039e-06
 -1.6708736e-04
 -2.0061019e-05
  1.0136533e-05
  1.4247050e-04
 -4.1476058e-05
 -1.1979806e-04
 -4.7369445e-05
  4.2958203e-05
 -2.0157211e-05
 -9.4895746e-05
 -5.6655022e-05
  6.8037489e-06
  1.9542733e-06
 -1.5125173e-05
  2.2532544e-05
 -9.1768939e-05
  8.3132436e-05
  1.7110093e-05
  7.5727243e-05
  5.0464394e-05
  2.5855263e-05
 -3.5847115e-05
  2.1645403e-05
  1.8754648e-05
  5.0653744e-06
 -8.7078392e-05
 -3.1649711e-06
  5.9780932e-06
  5.5158900e-05
  7.3864467e-05
 -1.2324449e-04
  5.9169133e-06
 -1.4963509e-04
  9.0265174e-05
  2.6873097e-06
  4.5541790e-05
  4.6989247e-05
  9.7674747e-06
  7.7414770e-06
 -4.4618217e-05
  2.9254017e-05
 -3.2777512e-05
 -8.4443767e-05
  1.0042819e-05
  4.3756118e-06
  3.0520361e-05
  1.8746059e-05
  1.2904132e-05
  1.5491483e-01
  3.5965906e-03
 -4.3778405e-02
 -8.4078452e-03
 -8.0410860e-02
 -9.2993962e-04
 -1.6337400e-02
 -3.7954924e-05
 -4.6847738e-02
  1.0098020e-04
  5.7123680e-06
 -5.1551182e-05
 -3.6461189e-04
 -1.4502716e-02
 -1.5635674e-03
 -9.8883706e-05
  2.3615838e-05
 -6.5314562e-05
 -2.9512872e-03
  7.2750219e-05
  9.1322017e-06
 -2.3146813e-05
 -8.4351661e-05
  1.9738602e-04
 -4.8582166e-05
 -7.6185097e-07
  4.6152032e-05
  2.4703591e-05
 -4.4091548e-06
 -2.7001302e-05
  4.1908342e-01
  1.8464997e-01
  3.9600772e-01
 -5.4517955e-01
  1.2103428e+00
  1.8758026e-01
 -1.2705332e-01
  7.0822543e-01
 -1.3394657e-01
 -5.8723050e-01
  3.8477403e-01
  5.8462288e-02
  5.1935464e-01
  8.2981475e-02
 -5.8892220e-02
  9.3987483e-01
  1.6461477e+00
 -5.4485653e-02
  1.5312936e+00
  8.8718635e-01
 -9.8918271e-01
 -1.8279049e-04
 -3.4835568e-05
  3.0820414e-01
 -7.7625585e-04
  7.5602062e-02
 -1.1932349e-05
  2.2473523e-01
 -1.0067583e-01
 -1.7239359e-01
 -7.1042597e-01
  9.4496840e-01
 -2.2787134e-01
 -3.2787785e-01
  3.3410919e-01
 -2.7383375e-01
  4.2278141e-02
 -5.0243187e-01
  2.5674084e-01
 -2.4662888e-01
  1.7424632e-02
  1.3052810e-05
 -1.2506758e-02
 -7.4436903e-02
  2.7593258e-01
  3.0867609e-01
 -1.5267343e-04
  2.7028424e-01
  5.9928936e-01
  1.0942718e-01
  1.9425558e-01
 -1.9127499e-05
 -1.7461476e-01
  1.6956858e-01
  1.1687066e-02
 -1.1472560e-04
  3.4775250e-04
 -2.4300045e-01
  2.1718202e-05
  9.8878302e-02
 -2.2744144e-04
  5.2302352e-05
  3.8754191e-05
 -7.7895857e-06
  3.3101147e-05
 -1.2053961e-04
 -1.7169185e-05
 -5.9576916e-05
 -5.3163727e-05
 -5.4255888e-05
  8.2505408e-05
 -4.3094774e-06
 -3.3409102e-05
  7.2341747e-05
 -3.2624033e-05
 -3.0431826e-05
  7.2747280e-05
  2.4342741e-04
 -1.4522015e-05
 -3.6548672e-06
  9.6064296e-06
  1.1179718e-04
 -6.1063220e-05
  1.3588936e-04
 -2.0357169e-05
  1.6778436e-05
  3.1398471e-05
 -7.4207019e-05
 -1.8408518e-06
  7.5764501e-07
 -1.0349133e-04
 -4.6824160e-05
 -2.0062411e-05
 -3.7364571e-06
 -2.0551488e-04
  3.9850063e-05
  2.9661403e-05
 -5.4076554e-07
 -1.4077476e-04
 -2.0134687e-05
 -1.2759585e-05
 -8.2066144e-06
  4.4664015e-05
  1.9123832e-05
  1.8169892e-05
  3.6114718e-05
 -1.5719521e-05
  2.2826589e-05
 -1.4458030e-05
 -1.3890526e-04
  3.5332992e-05
 -3.2525732e-05
  1.4735762e-05
  8.1785129e-06
 -2.6410806e-05
 -5.0203820e-05
 -1.0026777e-05
 -1.1138915e-05
 -1.8625375e-05
  3.3022858e-05
  2.5751293e-01
  1.0996922e+00
 -5.5343693e-01
  6.6738713e-01
 -7.6383597e-01
  5.7073569e-01
 -5.8514547e-01
 -4.7779492e-01
 -5.2591485e-01
  4.5106032e-01
  8.0974121e-03
 -4.8128948e-01
 -5.9011757e-01
 -9.7546794e-02
 -1.2605681e-02
  8.6460471e-01
  7.6186907e-01
  1.5975597e+00
 -6.9956666e-01
  5.7106745e-01
 -1.1787360e+00
  2.1179507e-03
  1.2754397e-04
  1.1797359e+00
 -3.4718108e-01
 -8.0357663e-02
  2.2237803e-01
  8.3122747e-03
  4.8822094e-02
 -3.3361330e-03
  2.4053486e-05
 -2.8996856e-05
 -1.8290739e-05
  2.5742884e-05
  4.5158381e-06
  9.8924693e-06
  7.7013188e-05
 -1.3921015e-05
  1.1697016e-04
 -3.5722558e-05
  6.4438856e-05
 -3.9338765e-06
  2.1566504e-05
 -1.5769105e-05
  5.6526438e-05
 -5.7496368e-06
 -9.1138485e-05
 -2.1943528e-05
 -1.7007065e-05
  3.9091951e-06
 -1.5456613e-05
 -2.7587689e-06
  4.4584380e-05
 -3.7175963e-05
  7.5030119e-05
 -1.0076223e-04
  9.4750067e-06
  5.5686261e-05
  7.8587502e-05
  1.8397945e-05
  1.5860496e-04
  1.5324475e-05
  4.4165836e-06
 -3.6850499e-05
  3.5099936e-05
 -1.2914754e-05
 -2.4789895e-05
  2.2282196e-05
  4.9179403e-06
  3.2265500e-05
 -4.8530634e-05
  3.3181070e-05
 -2.3198762e-04
  1.1458218e-04
 -8.1514940e-05
  1.9904031e-04
 -7.2218081e-06
  1.2521038e-05
 -8.0392065e-06
 -1.9957146e-05
  1.0701727e-04
  5.8059188e-05
 -8.8644147e-06
 -4.2434818e-05
  1.3140670e-05
  1.5293552e-05
  2.1465339e-05
  2.3851733e-05
  9.1899665e-06
  2.3625551e-05
 -2.1196049e-05
 -3.2475258e-05
  2.6962336e-05
  1.0416434e-05
  3.5346526e-05
 -4.8444228e-05
  4.9272108e-05
 -4.9187638e-06
  6.7948247e-05
 -1.4742614e-04
 -1.1554695e-04
  4.7294538e-06
 -2.9884261e-05
  5.2540054e-07
  2.2071139e-05
  3.3991266e-05
 -2.9303292e-06
  3.7168469e-05
 -6.5155444e-05
  6.0139533e-05
 -5.5916495e-05
 -3.2791344e-05
 -4.0775481e-05
  6.4693954e-06
  2.6338448e-06
 -7.3525662e-06
  6.3730113e-06
  4.1970061e-06
  2.6940645e-05
 -1.6411836e-05
 -2.3136277e-01
  2.6573887e-01
 -1.3527094e-01
 -3.5717997e-01
  1.6515808e-01
  1.3250907e-01
  1.9495632e-02
  3.5363922e-01
 -2.5694612e-02
 -4.5544196e-02
  1.3873041e-01
  2.4515577e-02
  2.2231960e-01
 -6.4720578e-02
 -1.3608876e-01
 -1.4820301e-03
  8.3565962e-01
  6.5378189e-01
 -4.6219733e-02
  4.1817829e-01
 -3.0969355e-01
  6.8559726e-05
  1.0298561e-01
 -2.1823460e-01
  3.0760100e-01
 -2.1533821e-02
  2.0662299e-01
  7.1187437e-02
 -2.4011586e-02
  9.8331399e-02
  8.0055362e-01
  8.2649040e-01
 -2.3764314e-01
  3.5950252e-01
  4.0528372e-01
 -7.8463131e-01
 -7.6341391e-02
  3.4962124e-01
  4.0117550e-01
 -1.0283457e-02
  6.1859047e-01
  2.3216724e-02
 -1.1310604e+00
 -2.5170863e-01
  9.5712429e-01
 -3.2987323e-01
  3.8571914e-05
  9.6766043e-01
 -1.5620791e+00
  1.9528140e-01
  5.4848168e-02
  2.1947917e-05
  3.2246062e-05
 -2.6519534e-01
  2.5190082e-01
 -2.2362533e-04
  1.3842011e-05
 -1.5715095e-04
  4.1848184e-06
 -1.0469371e-04
 -7.5240881e-05
 -1.6080317e-05
  4.3239934e-06
  8.7862463e-05
 -9.2618120e-06
 -7.5969248e-05
 -6.2858373e-05
 -9.8305238e-05
 -5.9564081e-05
 -4.0018091e-05
  4.9148606e-05
 -7.3511372e-05
 -1.2215102e-04
 -4.5492285e-05
  2.0582374e-05
 -3.0175206e-06
 -2.8534130e-05
 -4.2255382e-05
  1.1660003e-05
  5.6244975e-05
  7.6230617e-06
  1.1765815e-06
 -2.1180222e-05
  3.3903212e-05
  1.3777462e-05
  1.3626223e-05
 -4.9167313e-05
  3.6230019e-06
 -1.5270806e-04
  2.1528480e-05
 -7.5404487e-06
  4.5143726e-05
  2.1017344e-05
  7.6106269e-05
  2.8799508e-05
 -6.2459308e-06
  1.4687422e-06
 -5.2244322e-05
 -7.1076884e-06
  4.5304776e-05
  2.8105756e-05
 -8.2892519e-05
 -1.7167267e-05
 -4.3258948e-05
  1.2307901e-04
  2.7961321e-05
  1.4219026e-04
  2.1954205e-05
 -6.4743067e-06
 -3.0197885e-05
  2.4437926e-05
 -2.7057557e-05
  4.9237792e-07
  7.6474193e-05
  5.0553968e-05
  1.0061079e-05
 -9.1344536e-06
  1.5389280e-05
  1.2203589e-04
  5.5949982e-05
 -1.8652267e-05
 -1.5429494e-05
  1.9436899e-05
 -3.1685242e-05
  1.0189258e-04
  1.6013215e-05
 -1.2725305e-05
  1.1488806e-05
  4.3504006e-06
 -1.3511619e-05
 -3.4011624e-04
  9.8059689e-05
  3.2427427e-06
 -2.1296051e-05
 -1.4577126e-05
  8.1701786e-05
  7.4759504e-05
 -1.4726385e-05
  6.1758883e-06
 -3.6361096e-06
  2.3146999e-05
  7.9251731e-06
  2.3672717e-05
  4.6579578e-05
  5.1632837e-06
  4.4087701e-05
  2.1988726e-05
  2.4475403e-06
  5.7301108e-06
  1.1400234e-04
 -2.9993307e-05
 -2.2918171e-06
  7.0445849e-06
  4.4170574e-05
 -9.0010572e-06
  1.0994986e-06
 -1.7826427e-05
 -3.0003475e-05
 -8.5978900e-06
  8.5817483e-06
 -2.2357899e-05
 -2.1007287e-05
 -1.1673225e-05
  6.3811945e-05
 -8.7323715e-06
 -2.9766716e-06
  1.4346107e-05
  2.2327411e-05
 -7.9268066e-05
  9.2790049e-07
 -3.4846074e-05
 -3.5637513e-05
  9.6743788e-05
 -6.6337474e-05
 -1.5240451e-04
  2.1639367e-05
  2.2869905e-05
 -4.0955033e-06
 -1.8586530e-05
  3.7600938e-05
  3.6335663e-05
 -2.5842372e-05
 -3.3598815e-05
 -6.7976100e-05
 -2.3919189e-05
  2.0638248e-05
 -6.2932831e-06
 -1.8623708e-05
  1.1225782e-05
  1.1677015e-04
 -2.7101270e-05
  2.8933609e-06
  7.0678670e-06
  3.2394768e-05
 -2.0546830e-05
  4.8020081e-07
  4.8312559e-05
 -2.3011231e-05
 -2.3504826e-05
  3.5088873e-05
  7.3598450e-05
  1.7006154e-05
  6.4277760e-05
 -6.0009006e-05
 -4.6491818e-06
  1.1022257e-04
  7.7736993e-05
  1.6307229e-05
  2.3882307e-05
 -1.8092760e-06
  3.7980130e-01
  6.7681109e-04
 -9.8531105e-02
  2.5611112e-01
 -7.1388966e-01
  2.8368708e-01
 -1.7693454e-01
 -1.5693353e-05
 -1.3870831e-01
 -1.8720370e-05
  7.7275172e-02
 -1.3976791e-05
  7.6646596e-02
  7.6027290e-04
 -1.1640023e-01
 -2.7792103e-05
  9.9563710e-02
 -1.8519331e-06
 -2.6363408e-02
  1.8640993e-02
 -7.5132048e-05
 -7.9825522e-06
  6.2353261e-05
  3.8601611e-02
  1.9855112e-04
 -2.9920313e-05
  3.1645523e-05
 -5.1591323e-06
 -1.1819788e-05
 -2.6517230e-06
  2.0410096e-05
 -5.5429614e-06
  8.8575231e-05
 -3.9150935e-01
 -2.6742189e-05
  3.3130241e-04
 -2.3784873e-05
  6.9918227e-05
  3.2273527e-02
  6.7007044e-05
  4.1543019e-05
 -6.9918372e-08
  1.3448352e-04
 -3.8765047e-05
  2.2331993e-04
 -8.0112513e-05
 -3.3672313e-05
  2.6386546e-05
  7.0450365e-06
  4.6895912e-07
 -1.2725141e-05
 -2.1630251e-05
  5.1402934e-05
  9.8775618e-06
  1.8366627e-05
 -1.8129889e-05
  3.2787910e-05
  4.3619388e-05
  3.5708406e-05
 -5.0945662e-05
  2.0152399e-01
  2.5958165e-03
 -1.4373063e-01
  2.4473905e-03
 -1.3645691e-01
 -3.5836370e-04
 -4.0617786e-05
 -1.1915609e-04
 -7.8908771e-02
  2.7014086e-05
  5.4004613e-06
 -2.3666435e-05
 -2.4668910e-04
 -6.6170585e-03
 -2.1723548e-02
 -4.6540464e-07
  2.8597022e-04
 -1.5419049e-05
 -2.9811876e-02
  1.5466692e-04
  8.8960423e-06
 -6.2180945e-05
 -1.4458819e-04
  9.3617197e-04
  4.7599067e-05
 -5.7030484e-06
 -5.2774743e-05
  4.1793923e-05
 -8.0679143e-05
  1.2661826e-05
 -2.1002718e-06
  1.5459736e-05
  1.7307010e-04
 -3.9187824e-05
 -5.4589498e-05
 -5.3400465e-05
 -8.9779875e-05
  5.5873261e-05
  1.3599693e-04
 -6.5644759e-05
 -2.3944176e-05
 -5.9297487e-05
  1.6933653e-04
  4.6283831e-06
  3.0929397e-05
 -4.4152297e-05
 -1.9293360e-05
 -1.2270351e-05
 -1.1022890e-04
  4.3357177e-05
 -3.1228094e-05
 -2.3363074e-05
  2.2217238e-05
  5.5465639e-06
  1.1985618e-05
  2.8380877e-05
 -1.3608329e-05
  6.3614380e-06
 -3.7974045e-05
 -4.2978809e-07
  7.2466587e-06
  3.4686007e-05
 -5.6061170e-05
 -4.5839322e-04
 -4.6876539e-03
 -4.1877920e-05
  2.7537139e-05
  6.1807848e-05
 -6.6569105e-02
 -2.3894700e-07
 -1.1429718e-06
  6.4777741e-05
 -3.7966918e-05
  6.2741155e-06
 -4.2765154e-05
  2.4537952e-05
  2.0273084e-04
 -2.1286824e-05
 -1.4111977e-03
  2.6801099e-05
 -2.2429875e-05
 -5.0888346e-05
 -3.3541455e-05
 -6.1473882e-05
  1.2219174e-05
  1.2043906e-05
  9.5769246e-06
  2.9992329e-06
  2.0448539e-05
 -5.6167341e-06
  6.6170345e-05
 -6.8991867e-06
  5.8705074e-05
 -4.6021545e-05
  6.0335492e-07
  4.0884075e-05
 -3.7720474e-06
  5.8448395e-06
 -6.5724947e-05
 -2.5199275e-04
 -4.4025765e-05
 -4.8871498e-05
 -6.7434928e-05
  7.6661716e-05
  2.4439249e-04
  3.7046186e-05
 -2.4840225e-05
  7.6201533e-05
 -6.1381535e-05
 -3.8171056e-06
  4.1819465e-05
  8.8190427e-06
 -4.2090105e-05
 -5.5132004e-06
  3.3114804e-05
  5.9216920e-05
  2.1120853e-05
 -6.2326479e-05
 -1.8695113e-05
 -8.3282241e-05
  5.9281718e-03
  8.4425008e-01
  1.5346280e-01
  3.5666972e-01
  2.8413928e-01
  3.9722440e-01
 -1.2612012e-01
  5.5345327e-01
  2.5301778e-01
 -4.4812497e-01
  3.0043766e-01
 -2.9570522e-04
  7.2244161e-01
 -8.1453949e-02
 -8.6034503e-04
 -9.7322127e-06
  5.3758079e-01
  1.2246111e-01
  1.3167963e+00
  1.9011997e-01
 -2.5808215e-01
  7.3861684e-06
  2.6615703e-01
  6.2186086e-01
 -1.9350589e-05
  2.2261320e-05
 -7.2477967e-05
 -4.9030488e-05
  1.1363196e-04
 -8.6858705e-02
  1.4773414e-06
  1.0064397e-04
 -1.3578017e-04
  4.8307166e-02
 -1.1636007e-02
 -1.9452863e-04
 -2.5032643e-05
 -1.2449445e-05
 -2.7199941e-02
 -1.6889915e-05
  1.9697313e-07
  5.6446199e-05
 -3.4709497e-05
 -3.0313411e-05
  1.2309421e-05
 -4.2945103e-05
  2.9466377e-05
  2.4667711e-06
  2.5370515e-05
  1.6787999e-04
 -1.0951321e-05
 -9.2873786e-05
 -2.2333623e-05
 -6.3389962e-05
 -2.0341058e-05
 -2.0294767e-04
 -9.9818390e-05
  1.1204794e-04
  9.8551291e-06
 -5.4063406e-05
 -3.7665799e-05
  5.5956525e-07
 -4.8511418e-05
  1.3614323e-05
 -4.0199884e-05
  1.3381714e-04
 -2.5571637e-05
  6.8181621e-06
 -2.9443778e-05
  3.2286298e-06
 -3.2845956e-06
  2.9964389e-05
 -1.9378886e-05
  1.6241372e-04
 -9.1154623e-05
  5.4066822e-05
 -7.2571980e-05
 -1.4988074e-05
  3.9248669e-05
  2.3410694e-05
 -7.5660486e-05
 -5.5385481e-06
 -3.5910354e-05
  2.0086766e-06
  3.5745674e-05
  2.1594802e-05
  2.1810315e-06
 -1.1357854e-04
 -1.5070968e-06
 -7.6147946e-05
 -2.7293565e-05
  1.1861836e-05
 -6.4211032e-05
  1.1634595e-05
 -9.6056538e-05
  1.4386045e-05
  2.0705715e-05
  4.1288076e-05
  5.4021933e-05
  6.4706641e-05
 -8.4231266e-05
  1.6186512e-05
 -1.8090690e-05
 -1.1549742e-04
 -4.4985914e-05
 -9.6611411e-06
 -1.0065190e-04
  3.1473026e-06
  4.1555832e-06
  2.9213375e-05
 -5.6121035e-06
  8.7609325e-05
  4.2503634e-05
  5.1825806e-05
  1.4123124e-05
  8.9298665e-05
  2.5901254e-05
  5.0344264e-05
 -2.0384206e-05
  1.3578776e-04
  2.4411304e-01
  1.2323565e-01
 -3.2032833e-01
 -5.8358826e-02
 -1.2406245e-01
  7.4626081e-02
 -1.7547067e-01
  1.4700787e-02
 -5.1289681e-02
 -2.4642253e-02
  8.5989155e-02
 -1.3523068e-05
  1.3027050e-01
 -1.0548119e-01
 -8.3395548e-02
 -2.3870828e-02
  5.3106534e-01
 -1.7419531e-03
 -5.5796511e-02
  1.6196127e-01
 -1.8113099e-04
  3.5755384e-05
 -1.9607593e-03
 -4.1276041e-02
  8.5589141e-02
 -4.2430434e-05
  3.6576884e-03
  2.1539086e-03
 -4.3447371e-04
  1.4070125e-04
 -1.8627119e+00
  2.7246908e-06
 -3.2593907e-06
  1.8219056e-04
 -2.9154950e-01
 -7.4470602e-02
 -1.5164272e-05
 -6.1897763e-06
  4.7197621e-02
 -2.1185575e-05
 -7.9608682e-05
  3.9366832e-06
 -3.2059285e-01
  2.0309122e-01
  1.9492674e-05
 -4.3284857e-05
  2.4045945e-05
  1.9322862e-05
 -6.0540740e-05
 -2.4324121e-01
 -5.0118888e-05
  2.1761411e-05
  2.4523004e-05
  5.3509495e-05
 -2.4246830e-05
  6.2986869e-01
 -4.7734953e-05
 -6.9555586e-05
  2.0558324e-05
 -3.4433913e-01
  8.0381453e-01
 -3.4717079e-06
 -2.2851733e-05
 -1.3479340e-01
 -1.4275515e+00
 -3.1568605e-01
 -2.8933026e-05
  6.2923587e-05
 -5.5676532e-01
 -1.0324248e-04
 -2.2246300e-05
  1.6284026e-05
 -8.7988621e-01
 -3.1785882e-01
 -2.4766396e-05
 -2.3384191e-05
 -2.0290643e-06
 -2.1512013e-05
  1.7987890e-05
 -2.0626436e-01
  1.4257962e-01
 -1.7781477e-01
  9.5405288e-05
 -7.3528774e-02
 -5.1933202e-06
 -4.7255144e-01
 -6.3600071e-02
  3.0105313e-05
 -6.6562614e-05
 -4.4342747e-01
  4.1745129e+00
 -1.6684723e-01
 -3.3154407e-01
  2.0370860e+00
 -4.3121660e-01
 -1.2759714e+00
 -8.9580476e-01
 -6.2037639e-02
  2.8065145e-01
  1.2732821e+00
  2.4944566e-01
 -4.8569030e-01
  5.3045106e-01
  4.5592144e-01
 -1.4443322e-01
 -1.5418824e+00
  1.0755613e+00
 -1.0647714e+00
 -8.1275773e-01
  1.2113933e-01
  5.6013584e-01
 -2.2662379e-01
 -9.3474263e-01
  6.8844444e-01
  6.5142298e-01
 -1.1328654e+00
 -1.0090953e+00
  7.0018083e-01
  4.7532577e-02
 -8.8717574e-01
 -1.0384746e+00
 -9.2841393e-01
 -3.3410303e-02
 -1.5323262e-03
  8.3558553e-01
  7.4699074e-02
  8.7087679e-01
  3.9694694e-01
 -2.8165793e-01
 -8.5039610e-01
  4.7405633e-01
 -2.1597651e-01
  1.3590184e+00
  7.3750585e-01
 -2.8463265e-01
 -7.6330596e-01
  1.7416118e+00
  3.3630759e-01
  5.5724227e-01
  1.5900158e+00
  1.2307130e-01
  6.8373948e-02
  3.1368107e-01
  1.1734031e+00
 -1.1123510e-02
  1.6839790e-01
  1.5030545e-01
  4.7192904e-01
 -1.0968204e-01
  1.1657622e+00
 -4.1071901e-01
 -3.2062432e-01
  1.0376038e-01
  6.5691191e-01
 -1.1435593e-01
 -2.5178027e-01
  1.6298707e+00
  4.7252834e-05
  1.1659263e+00
  1.9954652e-02
 -1.0161834e+00
  1.8889803e+00
 -3.8347554e-01
  7.3495203e-01
  1.6731711e-01
  4.4925767e-01
  2.8165108e-01
  4.6196711e-01
 -2.5691265e-01
 -9.3427676e-01
  6.8752146e-01
 -1.3539822e+00
 -6.9655925e-02
 -7.5769526e-01
  9.8625964e-01
 -7.6302427e-01
  1.1646065e+00
  2.6026633e-02
 -3.8590398e-01
  8.0928367e-01
  1.0267392e+00
  5.7245296e-01
 -4.7885203e-01
 -8.5520226e-01
  8.8239074e-01
 -7.7958530e-01
 -1.4708886e-01
  1.2793754e+00
 -1.1169307e+00
  1.3104530e-01
  4.4321641e-01
 -1.7593171e-01
 -1.4121628e-01
 -6.8259996e-01
 -3.7319180e-01
  2.7055958e-01
  2.4617702e-01
  3.0602996e+00
  7.0631936e-02
  1.9856066e+00
  6.3091040e-01
  5.8459496e-01
  5.1896328e-01
  1.1677026e+00
  6.9267416e-01
  6.8689173e-01
  8.3610660e-01
 -1.2618597e-01
 -5.3018039e-01
  2.9513401e-01
 -9.3409568e-01
 -5.9048730e-01
 -1.4896207e+00
  6.8275297e-01
 -3.0472529e-01
 -7.9208273e-01
  7.0954907e-01
 -2.5965357e-01
  4.0252179e-01
  1.7842814e-01
  5.2731055e-01
  1.5960599e-01
  1.5960599e-01
  1.5960599e-01
  1.5960599e-01
  1.5960599e-01
  6.2509543e-01
  6.2509543e-01
  6.2509543e-01
  6.2509543e-01
  6.2509543e-01
  3.2099226e-01
  3.2099226e-01
  3.2099226e-01
  3.2099226e-01
  3.2099226e-01
  2.7106140e-02
  2.7106140e-02
  2.7106140e-02
  2.7106140e-02
  2.7106140e-02
  2.5516443e-02
  2.5516443e-02
  2.5516443e-02
  2.5516443e-02
  2.5516443e-02
  6.0879916e-01
  6.0879916e-01
  6.0879916e-01
  6.0879916e-01
  6.0879916e-01
